{"learner":{"attributes":{"scikit_learn":"{\"_estimator_type\": \"regressor\"}"},"feature_names":["mean_desposible_income","month","interest_rate","unemployment_rate"],"feature_types":["float","int","float","float"],"gradient_booster":{"model":{"gbtree_model_param":{"num_parallel_tree":"1","num_trees":"100"},"iteration_indptr":[0,1,2,3,4,5,6,7,8,9,10,11,12,13,14,15,16,17,18,19,20,21,22,23,24,25,26,27,28,29,30,31,32,33,34,35,36,37,38,39,40,41,42,43,44,45,46,47,48,49,50,51,52,53,54,55,56,57,58,59,60,61,62,63,64,65,66,67,68,69,70,71,72,73,74,75,76,77,78,79,80,81,82,83,84,85,86,87,88,89,90,91,92,93,94,95,96,97,98,99,100],"tree_info":[0,0,0,0,0,0,0,0,0,0,0,0,0,0,0,0,0,0,0,0,0,0,0,0,0,0,0,0,0,0,0,0,0,0,0,0,0,0,0,0,0,0,0,0,0,0,0,0,0,0,0,0,0,0,0,0,0,0,0,0,0,0,0,0,0,0,0,0,0,0,0,0,0,0,0,0,0,0,0,0,0,0,0,0,0,0,0,0,0,0,0,0,0,0,0,0,0,0,0,0],"trees":[{"base_weights":[3.4513928E-6,-6.2108502E0,3.6805093E0,-9.377992E0,-1.87146E0,-1.6779921E0,6.025036E0,-1.0915211E0,1.4598809E-1,-7.1834946E-1,1.0964674E-1,-3.774193E-1,7.5380705E-2,4.105776E-1,1.0577807E0],"categories":[],"categories_nodes":[],"categories_segments":[],"categories_sizes":[],"default_left":[0,0,0,0,0,0,0,0,0,0,0,0,0,0,0],"id":0,"left_children":[1,3,5,7,9,11,13,-1,-1,-1,-1,-1,-1,-1,-1],"loss_changes":[9.8294055E2,2.0234485E2,3.49315E2,1.6587659E2,1.3400232E2,4.8722862E1,1.22591E2,0E0,0E0,0E0,0E0,0E0,0E0,0E0,0E0],"parents":[2147483647,0,0,1,1,2,2,3,3,4,4,5,5,6,6],"right_children":[2,4,6,8,10,12,14,-1,-1,-1,-1,-1,-1,-1,-1],"split_conditions":[2.5E-1,1.98E2,3E0,1.2E1,5E0,2E0,1.1E1,-1.0915211E0,1.4598809E-1,-7.1834946E-1,1.0964674E-1,-3.774193E-1,7.5380705E-2,4.105776E-1,1.0577807E0],"split_indices":[2,0,1,1,1,1,1,0,0,0,0,0,0,0,0],"split_type":[0,0,0,0,0,0,0,0,0,0,0,0,0,0,0],"sum_hessian":[4.1E1,1.5E1,2.6E1,8E0,7E0,8E0,1.8E1,7E0,1E0,2E0,5E0,4E0,4E0,1.4E1,4E0],"tree_param":{"num_deleted":"0","num_feature":"4","num_nodes":"15","size_leaf_vector":"1"}},{"base_weights":[-9.232294E-3,-5.686906E0,3.3556569E0,-8.636494E0,-1.6577559E0,-1.5437521E0,5.499816E0,-1.1236975E0,-4.3087146E-1,2.8567404E-1,-3.6387113E-1,-3.4722582E-1,6.935044E-2,3.722572E-1,9.7315854E-1],"categories":[],"categories_nodes":[],"categories_segments":[],"categories_sizes":[],"default_left":[0,0,0,0,0,0,0,0,0,0,0,0,0,0,0],"id":1,"left_children":[1,3,5,7,9,11,13,-1,-1,-1,-1,-1,-1,-1,-1],"loss_changes":[8.214825E2,1.7583215E2,2.921284E2,5.2871826E1,8.193898E1,4.123909E1,1.0667035E2,0E0,0E0,0E0,0E0,0E0,0E0,0E0,0E0],"parents":[2147483647,0,0,1,1,2,2,3,3,4,4,5,5,6,6],"right_children":[2,4,6,8,10,12,14,-1,-1,-1,-1,-1,-1,-1,-1],"split_conditions":[2.5E-1,9E0,3E0,1.98E2,4.3E0,2E0,1.1E1,-1.1236975E0,-4.3087146E-1,2.8567404E-1,-3.6387113E-1,-3.4722582E-1,6.935044E-2,3.722572E-1,9.7315854E-1],"split_indices":[2,1,1,0,3,1,1,0,0,0,0,0,0,0,0],"split_type":[0,0,0,0,0,0,0,0,0,0,0,0,0,0,0],"sum_hessian":[4.1E1,1.5E1,2.6E1,8E0,7E0,8E0,1.8E1,4E0,4E0,2E0,5E0,4E0,4E0,1.4E1,4E0],"tree_param":{"num_deleted":"0","num_feature":"4","num_nodes":"15","size_leaf_vector":"1"}},{"base_weights":[-2.1766117E-2,-5.220265E0,3.0596318E0,-7.945576E0,-1.5017567E0,-1.4202508E0,5.0206485E0,-1.0338019E0,-3.9640185E-1,2.6662904E-1,-3.3354875E-1,-3.194475E-1,6.380234E-2,3.3751354E-1,8.953058E-1],"categories":[],"categories_nodes":[],"categories_segments":[],"categories_sizes":[],"default_left":[0,0,0,0,0,0,0,0,0,0,0,0,0,0,0],"id":2,"left_children":[1,3,5,7,9,11,13,-1,-1,-1,-1,-1,-1,-1,-1],"loss_changes":[6.887551E2,1.5021317E2,2.4432892E2,4.4750732E1,7.003798E1,3.4904705E1,9.272803E1,0E0,0E0,0E0,0E0,0E0,0E0,0E0,0E0],"parents":[2147483647,0,0,1,1,2,2,3,3,4,4,5,5,6,6],"right_children":[2,4,6,8,10,12,14,-1,-1,-1,-1,-1,-1,-1,-1],"split_conditions":[2.5E-1,9E0,3E0,1.98E2,4.3E0,2E0,1.1E1,-1.0338019E0,-3.9640185E-1,2.6662904E-1,-3.3354875E-1,-3.194475E-1,6.380234E-2,3.3751354E-1,8.953058E-1],"split_indices":[2,1,1,0,3,1,1,0,0,0,0,0,0,0,0],"split_type":[0,0,0,0,0,0,0,0,0,0,0,0,0,0,0],"sum_hessian":[4.1E1,1.5E1,2.6E1,8E0,7E0,8E0,1.8E1,4E0,4E0,2E0,5E0,4E0,4E0,1.4E1,4E0],"tree_param":{"num_deleted":"0","num_feature":"4","num_nodes":"15","size_leaf_vector":"1"}},{"base_weights":[-3.197116E-2,-4.79181E0,2.789858E0,-7.309932E0,-1.3599463E0,-1.3066305E0,4.5834656E0,-9.510981E-1,-3.646898E-1,-3.5865417E-1,1.7632847E-1,6.060318E-2,-2.9579666E-1,3.0601197E-1,8.2368106E-1],"categories":[],"categories_nodes":[],"categories_segments":[],"categories_sizes":[],"default_left":[0,0,0,0,0,0,0,0,0,0,0,0,0,0,0],"id":3,"left_children":[1,3,5,7,9,11,13,-1,-1,-1,-1,-1,-1,-1,-1],"loss_changes":[5.774895E2,1.2832855E2,2.0437117E2,3.7877014E1,6.1957466E1,3.0218658E1,8.053525E1,0E0,0E0,0E0,0E0,0E0,0E0,0E0,0E0],"parents":[2147483647,0,0,1,1,2,2,3,3,4,4,5,5,6,6],"right_children":[2,4,6,8,10,12,14,-1,-1,-1,-1,-1,-1,-1,-1],"split_conditions":[2.5E-1,9E0,3E0,1.98E2,1.98E2,3.38E2,1.1E1,-9.510981E-1,-3.646898E-1,-3.5865417E-1,1.7632847E-1,6.060318E-2,-2.9579666E-1,3.0601197E-1,8.2368106E-1],"split_indices":[2,1,1,0,0,0,1,0,0,0,0,0,0,0,0],"split_type":[0,0,0,0,0,0,0,0,0,0,0,0,0,0,0],"sum_hessian":[4.1E1,1.5E1,2.6E1,8E0,7E0,8E0,1.8E1,4E0,4E0,4E0,3E0,4E0,4E0,1.4E1,4E0],"tree_param":{"num_deleted":"0","num_feature":"4","num_nodes":"15","size_leaf_vector":"1"}},{"base_weights":[-4.3146405E-2,-4.4062605E0,2.5440006E0,-6.7251377E0,-1.2467413E0,-1.2020975E0,4.1845737E0,-8.7501043E-1,-3.355144E-1,2.370982E-1,-2.8478128E-1,-2.844835E-1,6.810593E-2,3.0816022E-1,9.0398866E-1],"categories":[],"categories_nodes":[],"categories_segments":[],"categories_sizes":[],"default_left":[0,0,0,0,0,0,0,0,0,0,0,0,0,0,0],"id":4,"left_children":[1,3,5,7,9,11,13,-1,-1,-1,-1,-1,-1,-1,-1],"loss_changes":[4.8530627E2,1.0884009E2,1.7096542E2,3.2059265E1,5.3089977E1,2.977929E1,7.389282E1,0E0,0E0,0E0,0E0,0E0,0E0,0E0,0E0],"parents":[2147483647,0,0,1,1,2,2,3,3,4,4,5,5,6,6],"right_children":[2,4,6,8,10,12,14,-1,-1,-1,-1,-1,-1,-1,-1],"split_conditions":[2.5E-1,9E0,3E0,1.98E2,4.3E0,2E0,1.2E1,-8.7501043E-1,-3.355144E-1,2.370982E-1,-2.8478128E-1,-2.844835E-1,6.810593E-2,3.0816022E-1,9.0398866E-1],"split_indices":[2,1,1,0,3,1,1,0,0,0,0,0,0,0,0],"split_type":[0,0,0,0,0,0,0,0,0,0,0,0,0,0,0],"sum_hessian":[4.1E1,1.5E1,2.6E1,8E0,7E0,8E0,1.8E1,4E0,4E0,2E0,5E0,4E0,4E0,1.6E1,2E0],"tree_param":{"num_deleted":"0","num_feature":"4","num_nodes":"15","size_leaf_vector":"1"}},{"base_weights":[-4.507973E-2,-4.044272E0,2.3264816E0,-9.396749E0,-2.608436E0,-1.1059299E0,3.8299143E0,-7.275619E-2,-1.3367561E0,1.084465E-1,-4.1940433E-1,-4.3729287E-1,-1.5093899E-2,2.7915704E-1,8.437225E-1],"categories":[],"categories_nodes":[],"categories_segments":[],"categories_sizes":[],"default_left":[0,0,0,0,0,0,0,0,0,0,0,0,0,0,0],"id":5,"left_children":[1,3,5,7,9,11,13,-1,-1,-1,-1,-1,-1,-1,-1],"loss_changes":[4.0775076E2,9.845361E1,1.4356639E2,9.354541E1,8.6525154E1,2.7419544E1,6.734238E1,0E0,0E0,0E0,0E0,0E0,0E0,0E0,0E0],"parents":[2147483647,0,0,1,1,2,2,3,3,4,4,5,5,6,6],"right_children":[2,4,6,8,10,12,14,-1,-1,-1,-1,-1,-1,-1,-1],"split_conditions":[2.5E-1,4.2E0,3E0,4E0,4.6E0,5E-1,1.2E1,-7.275619E-2,-1.3367561E0,1.084465E-1,-4.1940433E-1,-4.3729287E-1,-1.5093899E-2,2.7915704E-1,8.437225E-1],"split_indices":[2,3,1,1,3,2,1,0,0,0,0,0,0,0,0],"split_type":[0,0,0,0,0,0,0,0,0,0,0,0,0,0,0],"sum_hessian":[4.1E1,1.5E1,2.6E1,2E0,1.3E1,8E0,1.8E1,1E0,1E0,4E0,9E0,1E0,7E0,1.6E1,2E0],"tree_param":{"num_deleted":"0","num_feature":"4","num_nodes":"15","size_leaf_vector":"1"}},{"base_weights":[-6.557265E-2,-3.7473745E0,2.1186645E0,-8.926913E0,-2.369804E0,1.0428125E0,6.643851E-1,-6.91185E-2,-1.2699184E0,9.977096E-2,-3.8165805E-1,-2.5207338E-1,1.925703E-1],"categories":[],"categories_nodes":[],"categories_segments":[],"categories_sizes":[],"default_left":[0,0,0,0,0,0,0,0,0,0,0,0,0],"id":6,"left_children":[1,3,5,7,9,11,-1,-1,-1,-1,-1,-1,-1],"loss_changes":[3.457004E2,9.300784E1,1.2451934E2,8.442473E1,7.201638E1,7.7217255E1,0E0,0E0,0E0,0E0,0E0,0E0,0E0],"parents":[2147483647,0,0,1,1,2,2,3,3,4,4,5,5],"right_children":[2,4,6,8,10,12,-1,-1,-1,-1,-1,-1,-1],"split_conditions":[2.5E-1,4.2E0,1.1E1,4E0,4.6E0,2E0,6.643851E-1,-6.91185E-2,-1.2699184E0,9.977096E-2,-3.8165805E-1,-2.5207338E-1,1.925703E-1],"split_indices":[2,3,1,1,3,1,0,0,0,0,0,0,0],"split_type":[0,0,0,0,0,0,0,0,0,0,0,0,0],"sum_hessian":[4.1E1,1.5E1,2.6E1,2E0,1.3E1,2.2E1,4E0,1E0,1E0,4E0,9E0,4E0,1.8E1],"tree_param":{"num_deleted":"0","num_feature":"4","num_nodes":"13","size_leaf_vector":"1"}},{"base_weights":[-8.3207265E-2,-3.4739432E0,1.9291995E0,-8.480568E0,-2.1529562E0,9.3594193E-1,6.1123443E0,-6.5662764E-2,-1.2064224E0,1.4275227E-1,-3.2592255E-1,-2.3190735E-1,1.7432648E-1,2.755417E-1,7.4318236E-1],"categories":[],"categories_nodes":[],"categories_segments":[],"categories_sizes":[],"default_left":[0,0,0,0,0,0,0,0,0,0,0,0,0,0,0],"id":7,"left_children":[1,3,5,7,9,11,13,-1,-1,-1,-1,-1,-1,-1,-1],"loss_changes":[2.9329062E2,8.756067E1,1.0646259E2,7.619322E1,6.010624E1,6.448328E1,1.6692047E0,0E0,0E0,0E0,0E0,0E0,0E0,0E0,0E0],"parents":[2147483647,0,0,1,1,2,2,3,3,4,4,5,5,6,6],"right_children":[2,4,6,8,10,12,14,-1,-1,-1,-1,-1,-1,-1,-1],"split_conditions":[2.5E-1,4.2E0,1.1E1,4E0,4.4E0,2E0,1.2E1,-6.5662764E-2,-1.2064224E0,1.4275227E-1,-3.2592255E-1,-2.3190735E-1,1.7432648E-1,2.755417E-1,7.4318236E-1],"split_indices":[2,3,1,1,3,1,1,0,0,0,0,0,0,0,0],"split_type":[0,0,0,0,0,0,0,0,0,0,0,0,0,0,0],"sum_hessian":[4.1E1,1.5E1,2.6E1,2E0,1.3E1,2.2E1,4E0,1E0,1E0,3E0,1E1,4E0,1.8E1,2E0,2E0],"tree_param":{"num_deleted":"0","num_feature":"4","num_nodes":"15","size_leaf_vector":"1"}},{"base_weights":[-8.6650304E-2,-2.8243673E0,2.0843194E0,-3.9105382E0,4.2720565E-1,1.3844736E0,5.237431E-1,-5.9825987E-1,-8.3164506E-2,1.8652463E-1,-1.1251221E-1],"categories":[],"categories_nodes":[],"categories_segments":[],"categories_sizes":[],"default_left":[0,0,0,0,0,0,0,0,0,0,0],"id":8,"left_children":[1,3,5,7,-1,9,-1,-1,-1,-1,-1],"loss_changes":[2.555139E2,1.6315668E2,4.5709526E1,1.0347873E2,0E0,2.743608E1,0E0,0E0,0E0,0E0,0E0],"parents":[2147483647,0,0,1,1,2,2,3,3,5,5],"right_children":[2,4,6,8,-1,10,-1,-1,-1,-1,-1],"split_conditions":[7.5E-1,1.2E1,1.1E1,6.84E2,4.2720565E-1,6.84E2,5.237431E-1,-5.9825987E-1,-8.3164506E-2,1.8652463E-1,-1.1251221E-1],"split_indices":[2,1,1,0,0,0,0,0,0,0,0],"split_type":[0,0,0,0,0,0,0,0,0,0,0],"sum_hessian":[4.1E1,1.8E1,2.3E1,1.6E1,2E0,2E1,3E0,9E0,7E0,1.7E1,3E0],"tree_param":{"num_deleted":"0","num_feature":"4","num_nodes":"11","size_leaf_vector":"1"}},{"base_weights":[-6.9805145E-2,-2.9460802E0,1.6372396E0,-7.6576996E0,-1.7260132E0,9.738922E-1,6.619387E-1,-3.246651E-2,-1.1161884E0,-6.8221325E-1,-8.092247E-2,-2.0660006E-1,1.6513003E-1],"categories":[],"categories_nodes":[],"categories_segments":[],"categories_sizes":[],"default_left":[0,0,0,0,0,0,0,0,0,0,0,0,0],"id":9,"left_children":[1,3,5,7,9,11,-1,-1,-1,-1,-1,-1,-1],"loss_changes":[2.1104051E2,7.875856E1,8.278558E1,7.346506E1,5.9888245E1,5.4892788E1,0E0,0E0,0E0,0E0,0E0,0E0,0E0],"parents":[2147483647,0,0,1,1,2,2,3,3,4,4,5,5],"right_children":[2,4,6,8,10,12,-1,-1,-1,-1,-1,-1,-1],"split_conditions":[2.5E-1,4.2E0,1.2E1,4E0,4E0,2E0,6.619387E-1,-3.246651E-2,-1.1161884E0,-6.8221325E-1,-8.092247E-2,-2.0660006E-1,1.6513003E-1],"split_indices":[2,3,1,1,1,1,0,0,0,0,0,0,0],"split_type":[0,0,0,0,0,0,0,0,0,0,0,0,0],"sum_hessian":[4.1E1,1.5E1,2.6E1,2E0,1.3E1,2.4E1,2E0,1E0,1E0,1E0,1.2E1,4E0,2E1],"tree_param":{"num_deleted":"0","num_feature":"4","num_nodes":"13","size_leaf_vector":"1"}},{"base_weights":[-9.357053E-2,-2.4404948E0,1.76831E0,-3.3970668E0,3.793579E-1,1.3213289E0,6.024437E-1,-5.284692E-1,-6.1290264E-2,1.7338593E-1,-1.0716553E-1],"categories":[],"categories_nodes":[],"categories_segments":[],"categories_sizes":[],"default_left":[0,0,0,0,0,0,0,0,0,0,0],"id":10,"left_children":[1,3,5,7,-1,9,-1,-1,-1,-1,-1],"loss_changes":[1.8784264E2,1.2619051E2,3.769754E1,8.6103775E1,0E0,2.456321E1,0E0,0E0,0E0,0E0,0E0],"parents":[2147483647,0,0,1,1,2,2,3,3,5,5],"right_children":[2,4,6,8,-1,10,-1,-1,-1,-1,-1],"split_conditions":[7.5E-1,1.2E1,1.2E1,6.84E2,3.793579E-1,6.84E2,6.024437E-1,-5.284692E-1,-6.1290264E-2,1.7338593E-1,-1.0716553E-1],"split_indices":[2,1,1,0,0,0,0,0,0,0,0],"split_type":[0,0,0,0,0,0,0,0,0,0,0],"sum_hessian":[4.1E1,1.8E1,2.3E1,1.6E1,2E0,2.2E1,1E0,9E0,7E0,1.9E1,3E0],"tree_param":{"num_deleted":"0","num_feature":"4","num_nodes":"11","size_leaf_vector":"1"}},{"base_weights":[-7.330231E-2,-2.2075183E0,1.6193396E0,-3.0920513E0,3.540675E-1,1.192075E0,5.7232136E-1,-4.8090658E-1,-5.592766E-2,1.569143E-1,-9.912834E-2],"categories":[],"categories_nodes":[],"categories_segments":[],"categories_sizes":[],"default_left":[0,0,0,0,0,0,0,0,0,0,0],"id":11,"left_children":[1,3,5,7,-1,9,-1,-1,-1,-1,-1],"loss_changes":[1.5529819E2,1.0755282E2,3.526006E1,7.124019E1,0E0,2.049078E1,0E0,0E0,0E0,0E0,0E0],"parents":[2147483647,0,0,1,1,2,2,3,3,5,5],"right_children":[2,4,6,8,-1,10,-1,-1,-1,-1,-1],"split_conditions":[7.5E-1,1.2E1,1.2E1,6.84E2,3.540675E-1,6.84E2,5.7232136E-1,-4.8090658E-1,-5.592766E-2,1.569143E-1,-9.912834E-2],"split_indices":[2,1,1,0,0,0,0,0,0,0,0],"split_type":[0,0,0,0,0,0,0,0,0,0,0],"sum_hessian":[4.1E1,1.8E1,2.3E1,1.6E1,2E0,2.2E1,1E0,9E0,7E0,1.9E1,3E0],"tree_param":{"num_deleted":"0","num_feature":"4","num_nodes":"11","size_leaf_vector":"1"}},{"base_weights":[-5.532074E-2,-2.3239112E0,1.2910781E0,-4.3979664E0,-2.2209422E-1,5.459217E-1,4.460582E0,-6.2438184E-1,-2.0416915E-1,7.254334E-2,-3.9011574E-1,-1.7897095E-1,1.13182865E-1,1.892273E-1,5.5420303E-1],"categories":[],"categories_nodes":[],"categories_segments":[],"categories_sizes":[],"default_left":[0,0,0,0,0,0,0,0,0,0,0,0,0,0,0],"id":12,"left_children":[1,3,5,7,9,11,13,-1,-1,-1,-1,-1,-1,-1,-1],"loss_changes":[1.312863E2,6.877179E1,6.1332832E1,2.2046738E1,3.4204155E1,3.3500286E1,3.4004288E0,0E0,0E0,0E0,0E0,0E0,0E0,0E0,0E0],"parents":[2147483647,0,0,1,1,2,2,3,3,4,4,5,5,6,6],"right_children":[2,4,6,8,10,12,14,-1,-1,-1,-1,-1,-1,-1,-1],"split_conditions":[2.5E-1,8E0,1.1E1,1.98E2,5.3E0,2E0,1.2E1,-6.2438184E-1,-2.0416915E-1,7.254334E-2,-3.9011574E-1,-1.7897095E-1,1.13182865E-1,1.892273E-1,5.5420303E-1],"split_indices":[2,1,1,0,3,1,1,0,0,0,0,0,0,0,0],"split_type":[0,0,0,0,0,0,0,0,0,0,0,0,0,0,0],"sum_hessian":[4.1E1,1.5E1,2.6E1,7E0,8E0,2.2E1,4E0,3E0,4E0,7E0,1E0,4E0,1.8E1,2E0,2E0],"tree_param":{"num_deleted":"0","num_feature":"4","num_nodes":"15","size_leaf_vector":"1"}},{"base_weights":[-6.0941968E-2,-1.8867147E0,1.3870007E0,-3.8928847E0,3.0812684E-1,9.986138E-1,5.15995E-1,-5.775532E-1,-2.2609602E-1,2.888035E-1,-1.2101244E-1,1.334163E-1,-9.2878535E-2],"categories":[],"categories_nodes":[],"categories_segments":[],"categories_sizes":[],"default_left":[0,0,0,0,0,0,0,0,0,0,0,0,0],"id":13,"left_children":[1,3,5,7,9,11,-1,-1,-1,-1,-1,-1,-1],"loss_changes":[1.13648674E2,8.486078E1,3.0015945E1,1.766513E1,4.2664368E1,1.6114107E1,0E0,0E0,0E0,0E0,0E0,0E0,0E0],"parents":[2147483647,0,0,1,1,2,2,3,3,4,4,5,5],"right_children":[2,4,6,8,10,12,-1,-1,-1,-1,-1,-1,-1],"split_conditions":[7.5E-1,8E0,1.2E1,1.98E2,4.3E0,6.84E2,5.15995E-1,-5.775532E-1,-2.2609602E-1,2.888035E-1,-1.2101244E-1,1.334163E-1,-9.2878535E-2],"split_indices":[2,1,1,0,3,0,0,0,0,0,0,0,0],"split_type":[0,0,0,0,0,0,0,0,0,0,0,0,0],"sum_hessian":[4.1E1,1.8E1,2.3E1,9E0,9E0,2.2E1,1E0,3E0,6E0,3E0,6E0,1.9E1,3E0],"tree_param":{"num_deleted":"0","num_feature":"4","num_nodes":"13","size_leaf_vector":"1"}},{"base_weights":[-5.6735992E-2,-5.463124E-1,4.730818E-1,-2.6025362E0,8.472665E-1,-4.2894155E-1,-3.794804E-2,1.13194756E-1,-8.591252E-2],"categories":[],"categories_nodes":[],"categories_segments":[],"categories_sizes":[],"default_left":[0,0,0,0,0,0,0,0,0],"id":14,"left_children":[1,3,-1,5,7,-1,-1,-1,-1],"loss_changes":[1.01027176E2,1.1395994E2,0E0,5.8372658E1,1.2631138E1,0E0,0E0,0E0,0E0],"parents":[2147483647,0,0,1,1,3,3,4,4],"right_children":[2,4,-1,6,8,-1,-1,-1,-1],"split_conditions":[1.2E1,5E-1,4.730818E-1,6.84E2,6.84E2,-4.2894155E-1,-3.794804E-2,1.13194756E-1,-8.591252E-2],"split_indices":[1,2,0,0,0,0,0,0,0],"split_type":[0,0,0,0,0,0,0,0,0],"sum_hessian":[4.1E1,3.8E1,3E0,1.5E1,2.3E1,8E0,7E0,2E1,3E0],"tree_param":{"num_deleted":"0","num_feature":"4","num_nodes":"9","size_leaf_vector":"1"}},{"base_weights":[-5.026681E-2,-5.0295454E-1,4.3760052E-1,-2.3714638E0,7.6367474E-1,-3.9081356E-1,-3.4627534E-2,1.0241405E-1,-7.946892E-2],"categories":[],"categories_nodes":[],"categories_segments":[],"categories_sizes":[],"default_left":[0,0,0,0,0,0,0,0,0],"id":15,"left_children":[1,3,-1,5,7,-1,-1,-1,-1],"loss_changes":[8.635713E1,9.4112656E1,0E0,4.8439514E1,1.0555484E1,0E0,0E0,0E0,0E0],"parents":[2147483647,0,0,1,1,3,3,4,4],"right_children":[2,4,-1,6,8,-1,-1,-1,-1],"split_conditions":[1.2E1,5E-1,4.3760052E-1,6.84E2,6.84E2,-3.9081356E-1,-3.4627534E-2,1.0241405E-1,-7.946892E-2],"split_indices":[1,2,0,0,0,0,0,0,0],"split_type":[0,0,0,0,0,0,0,0,0],"sum_hessian":[4.1E1,3.8E1,3E0,1.5E1,2.3E1,8E0,7E0,2E1,3E0],"tree_param":{"num_deleted":"0","num_feature":"4","num_nodes":"9","size_leaf_vector":"1"}},{"base_weights":[-4.4404894E-2,-4.629802E-1,4.047806E-1,-2.1609054E0,6.8826073E-1,-4.1049096E-1,-5.8401186E-2,9.2660055E-2,-7.350884E-2],"categories":[],"categories_nodes":[],"categories_segments":[],"categories_sizes":[],"default_left":[0,0,0,0,0,0,0,0,0],"id":16,"left_children":[1,3,-1,5,7,-1,-1,-1,-1],"loss_changes":[7.381579E1,7.7721375E1,0E0,4.665049E1,8.822909E0,0E0,0E0,0E0,0E0],"parents":[2147483647,0,0,1,1,3,3,4,4],"right_children":[2,4,-1,6,8,-1,-1,-1,-1],"split_conditions":[1.2E1,5E-1,4.047806E-1,6E0,6.84E2,-4.1049096E-1,-5.8401186E-2,9.2660055E-2,-7.350884E-2],"split_indices":[1,2,0,1,0,0,0,0,0],"split_type":[0,0,0,0,0,0,0,0,0],"sum_hessian":[4.1E1,3.8E1,3E0,1.5E1,2.3E1,6E0,9E0,2E1,3E0],"tree_param":{"num_deleted":"0","num_feature":"4","num_nodes":"9","size_leaf_vector":"1"}},{"base_weights":[-4.1033607E-2,-2.1304994E0,6.7850256E-1,6.606121E-1,-3.2597427E0,-1.6021065E0,1.6405716E0,-6.0747783E-3,1.4123459E-1,-8.883011E-1,-1.1874171E-1,-5.435509E-1,3.568268E-3,8.723237E-2,3.6718866E-1],"categories":[],"categories_nodes":[],"categories_segments":[],"categories_sizes":[],"default_left":[0,0,0,0,0,0,0,0,0,0,0,0,0,0,0],"id":17,"left_children":[1,3,5,7,9,11,13,-1,-1,-1,-1,-1,-1,-1,-1],"loss_changes":[6.4590294E1,3.6823715E1,7.2839676E1,2.2548792E0,8.26781E1,6.2977E1,3.268965E1,0E0,0E0,0E0,0E0,0E0,0E0,0E0,0E0],"parents":[2147483647,0,0,1,1,2,2,3,3,4,4,5,5,6,6],"right_children":[2,4,6,8,10,12,14,-1,-1,-1,-1,-1,-1,-1,-1],"split_conditions":[1.98E2,4E0,4E0,3E0,6E0,5E-1,1.1E1,-6.0747783E-3,1.4123459E-1,-8.883011E-1,-1.1874171E-1,-5.435509E-1,3.568268E-3,8.723237E-2,3.6718866E-1],"split_indices":[0,1,1,1,1,2,1,0,0,0,0,0,0,0,0],"split_type":[0,0,0,0,0,0,0,0,0,0,0,0,0,0,0],"sum_hessian":[4.1E1,1E1,3.1E1,3E0,7E0,9E0,2.2E1,2E0,1E0,1E0,6E0,2E0,7E0,1.7E1,5E0],"tree_param":{"num_deleted":"0","num_feature":"4","num_nodes":"15","size_leaf_vector":"1"}},{"base_weights":[-5.9727624E-2,-4.325595E-1,3.590315E-1,-2.4977486E0,2.7025554E-1,6.283398E-2,-3.9272636E-1,6.952011E-2,-3.7859878E-1],"categories":[],"categories_nodes":[],"categories_segments":[],"categories_sizes":[],"default_left":[0,0,0,0,0,0,0,0,0],"id":18,"left_children":[1,3,-1,5,7,-1,-1,-1,-1],"loss_changes":[5.8708813E1,5.728142E1,0E0,4.7155556E1,5.4342495E1,0E0,0E0,0E0,0E0],"parents":[2147483647,0,0,1,1,3,3,4,4],"right_children":[2,4,-1,6,8,-1,-1,-1,-1],"split_conditions":[1.2E1,1.98E2,3.590315E-1,4E0,4.8E0,6.283398E-2,-3.9272636E-1,6.952011E-2,-3.7859878E-1],"split_indices":[1,0,0,1,3,0,0,0,0],"split_type":[0,0,0,0,0,0,0,0,0],"sum_hessian":[4.1E1,3.8E1,3E0,9E0,2.9E1,3E0,6E0,2.7E1,2E0],"tree_param":{"num_deleted":"0","num_feature":"4","num_nodes":"9","size_leaf_vector":"1"}},{"base_weights":[-6.04199E-2,-4.0568718E-1,3.3210412E-1,-2.2809653E0,2.3292847E-1,5.81213E-2,-3.5906437E-1,6.2816486E-2,-3.5335872E-1],"categories":[],"categories_nodes":[],"categories_segments":[],"categories_sizes":[],"default_left":[0,0,0,0,0,0,0,0,0],"id":19,"left_children":[1,3,-1,5,7,-1,-1,-1,-1],"loss_changes":[5.0382633E1,4.7237003E1,0E0,3.957226E1,4.6879593E1,0E0,0E0,0E0,0E0],"parents":[2147483647,0,0,1,1,3,3,4,4],"right_children":[2,4,-1,6,8,-1,-1,-1,-1],"split_conditions":[1.2E1,1.98E2,3.3210412E-1,4E0,4.8E0,5.81213E-2,-3.5906437E-1,6.2816486E-2,-3.5335872E-1],"split_indices":[1,0,0,1,3,0,0,0,0],"split_type":[0,0,0,0,0,0,0,0,0],"sum_hessian":[4.1E1,3.8E1,3E0,9E0,2.9E1,3E0,6E0,2.7E1,2E0],"tree_param":{"num_deleted":"0","num_feature":"4","num_nodes":"9","size_leaf_vector":"1"}},{"base_weights":[-6.055196E-2,-3.8028267E-1,3.0719605E-1,-2.0829644E0,1.9995397E-1,5.3762246E-2,-3.2828763E-1,-1.528566E-1,1.01353705E-1],"categories":[],"categories_nodes":[],"categories_segments":[],"categories_sizes":[],"default_left":[0,0,0,0,0,0,0,0,0],"id":20,"left_children":[1,3,-1,5,7,-1,-1,-1,-1],"loss_changes":[4.323375E1,3.894687E1,0E0,3.3209675E1,4.37381E1,0E0,0E0,0E0,0E0],"parents":[2147483647,0,0,1,1,3,3,4,4],"right_children":[2,4,-1,6,8,-1,-1,-1,-1],"split_conditions":[1.2E1,1.98E2,3.0719605E-1,4E0,4E0,5.3762246E-2,-3.2828763E-1,-1.528566E-1,1.01353705E-1],"split_indices":[1,0,0,1,1,0,0,0,0],"split_type":[0,0,0,0,0,0,0,0,0],"sum_hessian":[4.1E1,3.8E1,3E0,9E0,2.9E1,3E0,6E0,9E0,2E1],"tree_param":{"num_deleted":"0","num_feature":"4","num_nodes":"9","size_leaf_vector":"1"}},{"base_weights":[-5.4947443E-2,-3.5061646E-1,2.8415623E-1,-1.4092344E0,4.4708452E-1,-2.8841153E-1,-8.840637E-3,-7.719097E-2,6.685292E-2],"categories":[],"categories_nodes":[],"categories_segments":[],"categories_sizes":[],"default_left":[0,0,0,0,0,0,0,0,0],"id":21,"left_children":[1,3,-1,5,7,-1,-1,-1,-1],"loss_changes":[3.696544E1,3.356401E1,0E0,3.2862114E1,6.7246575E0,0E0,0E0,0E0,0E0],"parents":[2147483647,0,0,1,1,3,3,4,4],"right_children":[2,4,-1,6,8,-1,-1,-1,-1],"split_conditions":[1.2E1,7.5E-1,2.8415623E-1,6E0,2E0,-2.8841153E-1,-8.840637E-3,-7.719097E-2,6.685292E-2],"split_indices":[1,2,0,1,1,0,0,0,0],"split_type":[0,0,0,0,0,0,0,0,0],"sum_hessian":[4.1E1,3.8E1,3E0,1.6E1,2.2E1,7E0,9E0,3E0,1.9E1],"tree_param":{"num_deleted":"0","num_feature":"4","num_nodes":"9","size_leaf_vector":"1"}},{"base_weights":[-5.0011225E-2,-1.5144252E0,4.549439E-1,5.7198715E-1,-2.368328E0,-1.3157761E0,1.205042E0,-1.6973369E-2,1.3985749E-1,-7.75462E-1,-4.9105506E-2,-4.5790887E-1,7.243824E-3,6.061948E-2,2.8007433E-1],"categories":[],"categories_nodes":[],"categories_segments":[],"categories_sizes":[],"default_left":[0,0,0,0,0,0,0,0,0,0,0,0,0,0,0],"id":22,"left_children":[1,3,5,7,9,11,13,-1,-1,-1,-1,-1,-1,-1,-1],"loss_changes":[3.1746439E1,2.095218E1,4.4088406E1,2.6897745E0,7.7084366E1,4.5633476E1,2.0280567E1,0E0,0E0,0E0,0E0,0E0,0E0,0E0,0E0],"parents":[2147483647,0,0,1,1,2,2,3,3,4,4,5,5,6,6],"right_children":[2,4,6,8,10,12,14,-1,-1,-1,-1,-1,-1,-1,-1],"split_conditions":[1.98E2,4E0,4E0,3E0,6E0,5E-1,1.1E1,-1.6973369E-2,1.3985749E-1,-7.75462E-1,-4.9105506E-2,-4.5790887E-1,7.243824E-3,6.061948E-2,2.8007433E-1],"split_indices":[0,1,1,1,1,2,1,0,0,0,0,0,0,0,0],"split_type":[0,0,0,0,0,0,0,0,0,0,0,0,0,0,0],"sum_hessian":[4.1E1,1E1,3.1E1,3E0,7E0,9E0,2.2E1,2E0,1E0,1E0,6E0,2E0,7E0,1.7E1,5E0],"tree_param":{"num_deleted":"0","num_feature":"4","num_nodes":"15","size_leaf_vector":"1"}},{"base_weights":[-6.43365E-2,-3.2576576E-1,2.5006828E0,-1.7474778E0,1.5899709E-1,1.1480128E-1,3.2793465E-1,5.4551125E-2,-2.8081176E-1,4.8708398E-2,-2.9561463E-1],"categories":[],"categories_nodes":[],"categories_segments":[],"categories_sizes":[],"default_left":[0,0,0,0,0,0,0,0,0,0,0],"id":23,"left_children":[1,3,5,7,9,-1,-1,-1,-1,-1,-1],"loss_changes":[2.8978624E1,2.7156376E1,4.4836807E-1,2.5852213E1,3.210102E1,0E0,0E0,0E0,0E0,0E0,0E0],"parents":[2147483647,0,0,1,1,2,2,3,3,4,4],"right_children":[2,4,6,8,10,-1,-1,-1,-1,-1,-1],"split_conditions":[1.2E1,1.98E2,5E-1,4E0,4.8E0,1.1480128E-1,3.2793465E-1,5.4551125E-2,-2.8081176E-1,4.8708398E-2,-2.9561463E-1],"split_indices":[1,0,2,1,3,0,0,0,0,0,0],"split_type":[0,0,0,0,0,0,0,0,0,0,0],"sum_hessian":[4.1E1,3.8E1,3E0,9E0,2.9E1,2E0,1E0,3E0,6E0,2.7E1,2E0],"tree_param":{"num_deleted":"0","num_feature":"4","num_nodes":"11","size_leaf_vector":"1"}},{"base_weights":[-5.8625177E-2,-3.0531937E-1,2.3612995E0,-1.5953537E0,1.3486938E-1,1.07147984E-1,3.1153795E-1,5.045986E-2,-2.5674188E-1,4.4011742E-2,-2.759069E-1],"categories":[],"categories_nodes":[],"categories_segments":[],"categories_sizes":[],"default_left":[0,0,0,0,0,0,0,0,0,0,0],"id":24,"left_children":[1,3,5,7,9,-1,-1,-1,-1,-1,-1],"loss_changes":[2.5794168E1,2.236165E1,5.5244064E-1,2.170842E1,2.7715384E1,0E0,0E0,0E0,0E0,0E0,0E0],"parents":[2147483647,0,0,1,1,2,2,3,3,4,4],"right_children":[2,4,6,8,10,-1,-1,-1,-1,-1,-1],"split_conditions":[1.2E1,1.98E2,5E-1,4E0,4.8E0,1.07147984E-1,3.1153795E-1,5.045986E-2,-2.5674188E-1,4.4011742E-2,-2.759069E-1],"split_indices":[1,0,2,1,3,0,0,0,0,0,0],"split_type":[0,0,0,0,0,0,0,0,0,0,0],"sum_hessian":[4.1E1,3.8E1,3E0,9E0,2.9E1,2E0,1E0,3E0,6E0,2.7E1,2E0],"tree_param":{"num_deleted":"0","num_feature":"4","num_nodes":"11","size_leaf_vector":"1"}},{"base_weights":[-5.322774E-2,-2.8602386E-1,2.2298412E0,-1.4564453E0,1.1365077E-1,1.0000483E-1,2.95961E-1,4.6675302E-2,-2.3473524E-1,-1.246286E-1,7.558278E-2],"categories":[],"categories_nodes":[],"categories_segments":[],"categories_sizes":[],"default_left":[0,0,0,0,0,0,0,0,0,0,0],"id":25,"left_children":[1,3,5,7,9,-1,-1,-1,-1,-1,-1],"loss_changes":[2.296035E1,1.8409248E1,6.30106E-1,1.8229538E1,2.714158E1,0E0,0E0,0E0,0E0,0E0,0E0],"parents":[2147483647,0,0,1,1,2,2,3,3,4,4],"right_children":[2,4,6,8,10,-1,-1,-1,-1,-1,-1],"split_conditions":[1.2E1,1.98E2,5E-1,4E0,4E0,1.0000483E-1,2.95961E-1,4.6675302E-2,-2.3473524E-1,-1.246286E-1,7.558278E-2],"split_indices":[1,0,2,1,1,0,0,0,0,0,0],"split_type":[0,0,0,0,0,0,0,0,0,0,0],"sum_hessian":[4.1E1,3.8E1,3E0,9E0,2.9E1,2E0,1E0,3E0,6E0,9E0,2E1],"tree_param":{"num_deleted":"0","num_feature":"4","num_nodes":"11","size_leaf_vector":"1"}},{"base_weights":[-4.412424E-2,-2.6350287E-1,2.1058483E0,-1.3296082E0,1.0064901E-1,9.333776E-2,2.8116304E-1,4.3174554E-2,-2.1461521E-1,3.8199347E-2,-2.5587818E-1],"categories":[],"categories_nodes":[],"categories_segments":[],"categories_sizes":[],"default_left":[0,0,0,0,0,0,0,0,0,0,0],"id":26,"left_children":[1,3,5,7,9,-1,-1,-1,-1,-1,-1],"loss_changes":[2.0364532E1,1.5274569E1,6.8572235E-1,1.5308819E1,2.342392E1,0E0,0E0,0E0,0E0,0E0,0E0],"parents":[2147483647,0,0,1,1,2,2,3,3,4,4],"right_children":[2,4,6,8,10,-1,-1,-1,-1,-1,-1],"split_conditions":[1.2E1,1.98E2,5E-1,4E0,4.8E0,9.333776E-2,2.8116304E-1,4.3174554E-2,-2.1461521E-1,3.8199347E-2,-2.5587818E-1],"split_indices":[1,0,2,1,3,0,0,0,0,0,0],"split_type":[0,0,0,0,0,0,0,0,0,0,0],"sum_hessian":[4.1E1,3.8E1,3E0,9E0,2.9E1,2E0,1E0,3E0,6E0,2.7E1,2E0],"tree_param":{"num_deleted":"0","num_feature":"4","num_nodes":"11","size_leaf_vector":"1"}},{"base_weights":[-4.006086E-2,-2.4713096E-1,1.9888878E0,-1.2137916E0,8.332697E-2,8.711522E-2,2.6710472E-1,-2.4298827E-1,1.9162496E-4,-1.13909535E-1,6.6146486E-2],"categories":[],"categories_nodes":[],"categories_segments":[],"categories_sizes":[],"default_left":[0,0,0,0,0,0,0,0,0,0,0],"id":27,"left_children":[1,3,5,7,9,-1,-1,-1,-1,-1,-1],"loss_changes":[1.8137169E1,1.255933E1,7.230072E-1,1.4788773E1,2.1955332E1,0E0,0E0,0E0,0E0,0E0,0E0],"parents":[2147483647,0,0,1,1,2,2,3,3,4,4],"right_children":[2,4,6,8,10,-1,-1,-1,-1,-1,-1],"split_conditions":[1.2E1,1.98E2,5E-1,6E0,4E0,8.711522E-2,2.6710472E-1,-2.4298827E-1,1.9162496E-4,-1.13909535E-1,6.6146486E-2],"split_indices":[1,0,2,1,1,0,0,0,0,0,0],"split_type":[0,0,0,0,0,0,0,0,0,0,0],"sum_hessian":[4.1E1,3.8E1,3E0,9E0,2.9E1,2E0,1E0,4E0,5E0,9E0,2E1],"tree_param":{"num_deleted":"0","num_feature":"4","num_nodes":"11","size_leaf_vector":"1"}},{"base_weights":[-3.453954E-2,-2.2986877E-1,1.8785553E0,-6.098137E-1,4.9216244E-1,8.130773E-2,2.5374946E-1,-1.1467018E-1,1.5282264E-3,1.4343165E-1,-3.937426E-2],"categories":[],"categories_nodes":[],"categories_segments":[],"categories_sizes":[],"default_left":[0,0,0,0,0,0,0,0,0,0,0],"id":28,"left_children":[1,3,5,7,9,-1,-1,-1,-1,-1,-1],"loss_changes":[1.612652E1,1.099908E1,7.45162E-1,8.743296E0,1.2249975E1,0E0,0E0,0E0,0E0,0E0,0E0],"parents":[2147483647,0,0,1,1,2,2,3,3,4,4],"right_children":[2,4,6,8,10,-1,-1,-1,-1,-1,-1],"split_conditions":[1.2E1,3E0,5E-1,4.2E0,5.25E0,8.130773E-2,2.5374946E-1,-1.1467018E-1,1.5282264E-3,1.4343165E-1,-3.937426E-2],"split_indices":[1,2,2,3,2,0,0,0,0,0,0],"split_type":[0,0,0,0,0,0,0,0,0,0,0],"sum_hessian":[4.1E1,3.8E1,3E0,2.5E1,1.3E1,2E0,1E0,1.3E1,1.2E1,6E0,7E0],"tree_param":{"num_deleted":"0","num_feature":"4","num_nodes":"11","size_leaf_vector":"1"}},{"base_weights":[-2.3323605E-2,-2.0711419E-1,1.7744656E0,-8.269448E-1,2.1473598E-1,7.58873E-2,2.4106216E-1,-3.3528692E-1,1.3873761E-3,5.6501854E-2,-7.166672E-2],"categories":[],"categories_nodes":[],"categories_segments":[],"categories_sizes":[],"default_left":[0,0,0,0,0,0,0,0,0,0,0],"id":29,"left_children":[1,3,5,7,9,-1,-1,-1,-1,-1,-1],"loss_changes":[1.4245021E1,1.0375126E1,7.5494576E-1,3.4028023E1,8.235034E0,0E0,0E0,0E0,0E0,0E0,0E0],"parents":[2147483647,0,0,1,1,2,2,3,3,4,4],"right_children":[2,4,6,8,10,-1,-1,-1,-1,-1,-1],"split_conditions":[1.2E1,5E-1,5E-1,4.2E0,8E0,7.58873E-2,2.4106216E-1,-3.3528692E-1,1.3873761E-3,5.6501854E-2,-7.166672E-2],"split_indices":[1,2,2,3,1,0,0,0,0,0,0],"split_type":[0,0,0,0,0,0,0,0,0,0,0],"sum_hessian":[4.1E1,3.8E1,3E0,1.5E1,2.3E1,2E0,1E0,3E0,1.2E1,1.7E1,6E0],"tree_param":{"num_deleted":"0","num_feature":"4","num_nodes":"11","size_leaf_vector":"1"}},{"base_weights":[-2.1756671E-2,-2.8132477E-1,1.1165733E0,-4.644916E-1,1.2543412E-1,1.872151E0,-2.0862351E-1,-1.588499E-1,1.1862529E-2,8.1791945E-2,2.1302597E-1],"categories":[],"categories_nodes":[],"categories_segments":[],"categories_sizes":[],"default_left":[0,0,0,0,0,0,0,0,0,0,0],"id":30,"left_children":[1,3,5,7,-1,9,-1,-1,-1,-1,-1],"loss_changes":[1.2724034E1,1.0427538E1,2.3265507E1,2.116212E1,0E0,1.6236496E-1,0E0,0E0,0E0,0E0,0E0],"parents":[2147483647,0,0,1,1,2,2,3,3,5,5],"right_children":[2,4,6,8,-1,10,-1,-1,-1,-1,-1],"split_conditions":[1.1E1,5E0,5.3E0,5E-1,1.2543412E-1,3.38E2,-2.0862351E-1,-1.588499E-1,1.1862529E-2,8.1791945E-2,2.1302597E-1],"split_indices":[1,3,3,2,0,0,0,0,0,0,0],"split_type":[0,0,0,0,0,0,0,0,0,0,0],"sum_hessian":[4.1E1,3.4E1,7E0,3.1E1,3E0,6E0,1E0,1E1,2.1E1,2E0,4E0],"tree_param":{"num_deleted":"0","num_feature":"4","num_nodes":"11","size_leaf_vector":"1"}},{"base_weights":[-1.8042428E-2,-3.8510948E-1,6.6835225E-1,-7.883602E-1,4.1957778E-1,1.632947E0,-3.797865E-1,-1.343409E-1,-1.5447541E-2,9.066247E-2,-1.9819222E-1,-3.3617658E-3,2.1940716E-1,-6.1279733E-2,6.256447E-2],"categories":[],"categories_nodes":[],"categories_segments":[],"categories_sizes":[],"default_left":[0,0,0,0,0,0,0,0,0,0,0,0,0,0,0],"id":31,"left_children":[1,3,5,7,9,11,13,-1,-1,-1,-1,-1,-1,-1,-1],"loss_changes":[1.0839411E1,9.416517E0,1.5785607E1,6.477379E0,1.3493291E1,7.554962E0,2.2576041E0,0E0,0E0,0E0,0E0,0E0,0E0,0E0,0E0],"parents":[2147483647,0,0,1,1,2,2,3,3,4,4,5,5,6,6],"right_children":[2,4,6,8,10,12,14,-1,-1,-1,-1,-1,-1,-1,-1],"split_conditions":[3E0,9E0,5.25E0,5E-1,5.3E0,3E0,1.1E1,-1.343409E-1,-1.5447541E-2,9.066247E-2,-1.9819222E-1,-3.3617658E-3,2.1940716E-1,-6.1279733E-2,6.256447E-2],"split_indices":[2,1,2,2,3,1,1,0,0,0,0,0,0,0,0],"split_type":[0,0,0,0,0,0,0,0,0,0,0,0,0,0,0],"sum_hessian":[4.1E1,2.7E1,1.4E1,1.8E1,9E0,7E0,7E0,9E0,9E0,8E0,1E0,2E0,5E0,6E0,1E0],"tree_param":{"num_deleted":"0","num_feature":"4","num_nodes":"15","size_leaf_vector":"1"}},{"base_weights":[-1.7189752E-2,-1.671389E-1,1.4491119E0,-9.2949677E-1,9.255168E-2,5.4956563E-2,2.0738755E-1,7.982693E-2,-1.7840064E-1,-9.992363E-2,6.080435E-2],"categories":[],"categories_nodes":[],"categories_segments":[],"categories_sizes":[],"default_left":[0,0,0,0,0,0,0,0,0,0,0],"id":32,"left_children":[1,3,5,7,9,-1,-1,-1,-1,-1,-1],"loss_changes":[9.476773E0,7.8071356E0,1.108283E0,1.6188044E1,1.7491812E1,0E0,0E0,0E0,0E0,0E0,0E0],"parents":[2147483647,0,0,1,1,2,2,3,3,4,4],"right_children":[2,4,6,8,10,-1,-1,-1,-1,-1,-1],"split_conditions":[1.2E1,1.98E2,5E-1,4E0,4E0,5.4956563E-2,2.0738755E-1,7.982693E-2,-1.7840064E-1,-9.992363E-2,6.080435E-2],"split_indices":[1,0,2,1,1,0,0,0,0,0,0],"split_type":[0,0,0,0,0,0,0,0,0,0,0],"sum_hessian":[4.1E1,3.8E1,3E0,9E0,2.9E1,2E0,1E0,3E0,6E0,9E0,2E1],"tree_param":{"num_deleted":"0","num_feature":"4","num_nodes":"11","size_leaf_vector":"1"}},{"base_weights":[-1.2504396E-2,-3.418233E-1,6.0305786E-1,-8.3581746E-1,2.118721E-1,1.485404E0,-3.5467052E-1,-3.0711976E-1,-2.5566688E-2,-4.1503412E-1,8.6668395E-2,-3.8505938E-2,1.8076216E-1,-5.664695E-2,5.6396104E-2],"categories":[],"categories_nodes":[],"categories_segments":[],"categories_sizes":[],"default_left":[0,0,0,0,0,0,0,0,0,0,0,0,0,0,0],"id":33,"left_children":[1,3,5,7,9,11,13,-1,-1,-1,-1,-1,-1,-1,-1],"loss_changes":[8.720224E0,7.835711E0,1.3202548E1,1.8667652E1,4.3587036E1,5.5176086E0,1.8759884E0,0E0,0E0,0E0,0E0,0E0,0E0,0E0,0E0],"parents":[2147483647,0,0,1,1,2,2,3,3,4,4,5,5,6,6],"right_children":[2,4,6,8,10,12,14,-1,-1,-1,-1,-1,-1,-1,-1],"split_conditions":[3E0,4.2E0,5.25E0,2.5E-1,4E0,2E0,1.1E1,-3.0711976E-1,-2.5566688E-2,-4.1503412E-1,8.6668395E-2,-3.8505938E-2,1.8076216E-1,-5.664695E-2,5.6396104E-2],"split_indices":[2,3,2,2,1,1,1,0,0,0,0,0,0,0,0],"split_type":[0,0,0,0,0,0,0,0,0,0,0,0,0,0,0],"sum_hessian":[4.1E1,2.7E1,1.4E1,1.4E1,1.3E1,7E0,7E0,2E0,1.2E1,1E0,1.2E1,1E0,6E0,6E0,1E0],"tree_param":{"num_deleted":"0","num_feature":"4","num_nodes":"15","size_leaf_vector":"1"}},{"base_weights":[-2.3612794E-2,-3.1961244E-1,5.9121597E-1,-6.6159016E-1,3.0013207E-1,1.5472707E0,-3.192339E-1,-8.099145E-2,1.0041237E-1,6.97538E-2,-1.8369637E-1,-1.2179058E-3,2.1734862E-1,-5.179138E-2,5.357628E-2],"categories":[],"categories_nodes":[],"categories_segments":[],"categories_sizes":[],"default_left":[0,0,0,0,0,0,0,0,0,0,0,0,0,0,0],"id":34,"left_children":[1,3,5,7,9,11,13,-1,-1,-1,-1,-1,-1,-1,-1],"loss_changes":[7.8325024E0,6.34479E0,1.26800995E1,5.5075054E0,1.0623592E1,6.8623333E0,1.6364442E0,0E0,0E0,0E0,0E0,0E0,0E0,0E0,0E0],"parents":[2147483647,0,0,1,1,2,2,3,3,4,4,5,5,6,6],"right_children":[2,4,6,8,10,12,14,-1,-1,-1,-1,-1,-1,-1,-1],"split_conditions":[3.5E0,9E0,5.25E0,5E0,5.3E0,3E0,1.1E1,-8.099145E-2,1.0041237E-1,6.97538E-2,-1.8369637E-1,-1.2179058E-3,2.1734862E-1,-5.179138E-2,5.357628E-2],"split_indices":[2,1,2,3,3,1,1,0,0,0,0,0,0,0,0],"split_type":[0,0,0,0,0,0,0,0,0,0,0,0,0,0,0],"sum_hessian":[4.1E1,2.8E1,1.3E1,1.8E1,1E1,6E0,7E0,1.7E1,1E0,9E0,1E0,2E0,4E0,6E0,1E0],"tree_param":{"num_deleted":"0","num_feature":"4","num_nodes":"15","size_leaf_vector":"1"}},{"base_weights":[-1.831309E-2,-1.4486088E-1,1.2201061E0,-7.883293E-1,7.4457295E-2,4.4605765E-2,1.7711258E-1,8.8870816E-2,-1.634018E-1,2.94305E-2,-2.0022736E-1],"categories":[],"categories_nodes":[],"categories_segments":[],"categories_sizes":[],"default_left":[0,0,0,0,0,0,0,0,0,0,0],"id":35,"left_children":[1,3,5,7,9,-1,-1,-1,-1,-1,-1],"loss_changes":[6.7589526E0,5.5625453E0,9.1603994E-1,1.5634681E1,1.4286213E1,0E0,0E0,0E0,0E0,0E0,0E0],"parents":[2147483647,0,0,1,1,2,2,3,3,4,4],"right_children":[2,4,6,8,10,-1,-1,-1,-1,-1,-1],"split_conditions":[1.2E1,1.98E2,5E-1,4E0,4.8E0,4.4605765E-2,1.7711258E-1,8.8870816E-2,-1.634018E-1,2.94305E-2,-2.0022736E-1],"split_indices":[1,0,2,1,3,0,0,0,0,0,0],"split_type":[0,0,0,0,0,0,0,0,0,0,0],"sum_hessian":[4.1E1,3.8E1,3E0,9E0,2.9E1,2E0,1E0,3E0,6E0,2.7E1,2E0],"tree_param":{"num_deleted":"0","num_feature":"4","num_nodes":"11","size_leaf_vector":"1"}},{"base_weights":[-1.704661E-2,-1.3666809E-1,1.1535244E0,-4.8249817E-1,2.936058E-1,4.163183E-2,1.6825715E-1,-2.5999147E-1,-1.1331659E-3,-2.0570718E-1,9.008794E-2],"categories":[],"categories_nodes":[],"categories_segments":[],"categories_sizes":[],"default_left":[0,0,0,0,0,0,0,0,0,0,0],"id":36,"left_children":[1,3,5,7,9,-1,-1,-1,-1,-1,-1],"loss_changes":[6.0387177E0,5.9449286E0,8.5958195E-1,2.1918964E1,2.7548252E1,0E0,0E0,0E0,0E0,0E0,0E0],"parents":[2147483647,0,0,1,1,2,2,3,3,4,4],"right_children":[2,4,6,8,10,-1,-1,-1,-1,-1,-1],"split_conditions":[1.2E1,4.2E0,5E-1,5E-1,4E0,4.163183E-2,1.6825715E-1,-2.5999147E-1,-1.1331659E-3,-2.0570718E-1,9.008794E-2],"split_indices":[1,3,2,2,1,0,0,0,0,0,0],"split_type":[0,0,0,0,0,0,0,0,0,0,0],"sum_hessian":[4.1E1,3.8E1,3E0,2.1E1,1.7E1,2E0,1E0,3E0,1.8E1,3E0,1.4E1],"tree_param":{"num_deleted":"0","num_feature":"4","num_nodes":"11","size_leaf_vector":"1"}},{"base_weights":[-1.9313267E-2,6.355528E-2,-1.7084618E-1,-1.8288313E-1,1.286668E0,-3.5156824E-2,1.2123185E-1,3.252983E-2,1.3926798E-1],"categories":[],"categories_nodes":[],"categories_segments":[],"categories_sizes":[],"default_left":[0,0,0,0,0,0,0,0,0],"id":37,"left_children":[1,3,-1,5,7,-1,-1,-1,-1],"loss_changes":[5.9876275E0,1.2593609E1,0E0,8.663452E0,2.6038074E-1,0E0,0E0,0E0,0E0],"parents":[2147483647,0,0,1,1,3,3,4,4],"right_children":[2,4,-1,6,8,-1,-1,-1,-1],"split_conditions":[5.3E0,1.1E1,-1.7084618E-1,5E0,1.98E2,-3.5156824E-2,1.2123185E-1,3.252983E-2,1.3926798E-1],"split_indices":[3,1,0,3,0,0,0,0,0],"split_type":[0,0,0,0,0,0,0,0,0],"sum_hessian":[4.1E1,4E1,1E0,3.4E1,6E0,3.1E1,3E0,1E0,5E0],"tree_param":{"num_deleted":"0","num_feature":"4","num_nodes":"9","size_leaf_vector":"1"}},{"base_weights":[-1.5310196E-2,-2.713439E-1,5.161389E-1,-6.475067E-1,1.779382E-1,1.3460552E0,-2.745552E-1,-2.590843E-1,-1.8482698E-2,-3.6817858E-1,7.580543E-2,-6.792704E-4,1.8885529E-1,-6.054469E-4,-1.0770302E-1],"categories":[],"categories_nodes":[],"categories_segments":[],"categories_sizes":[],"default_left":[0,0,0,0,0,0,0,0,0,0,0,0,0,0,0],"id":38,"left_children":[1,3,5,7,9,11,13,-1,-1,-1,-1,-1,-1,-1,-1],"loss_changes":[5.854944E0,5.0163093E0,9.556505E0,1.3907421E1,3.4138226E1,5.1502457E0,1.7172E0,0E0,0E0,0E0,0E0,0E0,0E0,0E0,0E0],"parents":[2147483647,0,0,1,1,2,2,3,3,4,4,5,5,6,6],"right_children":[2,4,6,8,10,12,14,-1,-1,-1,-1,-1,-1,-1,-1],"split_conditions":[3.5E0,4.2E0,5.25E0,2.5E-1,4E0,3E0,4.4E0,-2.590843E-1,-1.8482698E-2,-3.6817858E-1,7.580543E-2,-6.792704E-4,1.8885529E-1,-6.054469E-4,-1.0770302E-1],"split_indices":[2,3,2,2,1,1,3,0,0,0,0,0,0,0,0],"split_type":[0,0,0,0,0,0,0,0,0,0,0,0,0,0,0],"sum_hessian":[4.1E1,2.8E1,1.3E1,1.5E1,1.3E1,6E0,7E0,2E0,1.3E1,1E0,1.2E1,2E0,4E0,6E0,1E0],"tree_param":{"num_deleted":"0","num_feature":"4","num_nodes":"15","size_leaf_vector":"1"}},{"base_weights":[-2.5447119E-2,5.4953784E-2,-1.6609421E-1,-1.6348027E-1,1.1392735E0,-3.1187415E-2,1.0645409E-1,2.711296E-2,1.23877585E-1],"categories":[],"categories_nodes":[],"categories_segments":[],"categories_sizes":[],"default_left":[0,0,0,0,0,0,0,0,0],"id":39,"left_children":[1,3,-1,5,7,-1,-1,-1,-1],"loss_changes":[5.614076E0,9.897195E0,0E0,6.710082E0,2.6880836E-1,0E0,0E0,0E0,0E0],"parents":[2147483647,0,0,1,1,3,3,4,4],"right_children":[2,4,-1,6,8,-1,-1,-1,-1],"split_conditions":[5.3E0,1.1E1,-1.6609421E-1,5E0,1.98E2,-3.1187415E-2,1.0645409E-1,2.711296E-2,1.23877585E-1],"split_indices":[3,1,0,3,0,0,0,0,0],"split_type":[0,0,0,0,0,0,0,0,0],"sum_hessian":[4.1E1,4E1,1E0,3.4E1,6E0,3.1E1,3E0,1E0,5E0],"tree_param":{"num_deleted":"0","num_feature":"4","num_nodes":"9","size_leaf_vector":"1"}},{"base_weights":[-2.1468934E-2,-2.6138648E-1,4.7703663E-1,-5.9024477E-1,1.3312204E-1,1.2429112E0,-2.5273323E-1,4.3266203E-2,-1.4339125E-1,-3.4821016E-1,6.790701E-2,1.4452616E-3,1.731404E-1,-9.5694406E-5,-1.0075837E-1],"categories":[],"categories_nodes":[],"categories_segments":[],"categories_sizes":[],"default_left":[0,0,0,0,0,0,0,0,0,0,0,0,0,0,0],"id":40,"left_children":[1,3,5,7,9,11,13,-1,-1,-1,-1,-1,-1,-1,-1],"loss_changes":[5.1479006E0,3.840959E0,8.138896E0,1.4428295E1,2.999673E1,4.1756306E0,1.5194631E0,0E0,0E0,0E0,0E0,0E0,0E0,0E0,0E0],"parents":[2147483647,0,0,1,1,2,2,3,3,4,4,5,5,6,6],"right_children":[2,4,6,8,10,12,14,-1,-1,-1,-1,-1,-1,-1,-1],"split_conditions":[3.5E0,4.2E0,5.25E0,5E0,4E0,3E0,4.4E0,4.3266203E-2,-1.4339125E-1,-3.4821016E-1,6.790701E-2,1.4452616E-3,1.731404E-1,-9.5694406E-5,-1.0075837E-1],"split_indices":[2,3,2,1,1,1,3,0,0,0,0,0,0,0,0],"split_type":[0,0,0,0,0,0,0,0,0,0,0,0,0,0,0],"sum_hessian":[4.1E1,2.8E1,1.3E1,1.5E1,1.3E1,6E0,7E0,7E0,8E0,1E0,1.2E1,2E0,4E0,6E0,1E0],"tree_param":{"num_deleted":"0","num_feature":"4","num_nodes":"15","size_leaf_vector":"1"}},{"base_weights":[-2.6623681E-2,5.1353827E-2,-1.6118507E-1,-1.485951E-1,1.0437622E0,-2.7924705E-2,9.337693E-2,3.9148204E-2,1.22637786E-1],"categories":[],"categories_nodes":[],"categories_segments":[],"categories_sizes":[],"default_left":[0,0,0,0,0,0,0,0,0],"id":41,"left_children":[1,3,-1,5,7,-1,-1,-1,-1],"loss_changes":[5.274481E0,8.290769E0,0E0,5.2102075E0,3.5371113E-1,0E0,0E0,0E0,0E0],"parents":[2147483647,0,0,1,1,3,3,4,4],"right_children":[2,4,-1,6,8,-1,-1,-1,-1],"split_conditions":[5.3E0,1.1E1,-1.6118507E-1,5E0,3.38E2,-2.7924705E-2,9.337693E-2,3.9148204E-2,1.22637786E-1],"split_indices":[3,1,0,3,0,0,0,0,0],"split_type":[0,0,0,0,0,0,0,0,0],"sum_hessian":[4.1E1,4E1,1E0,3.4E1,6E0,3.1E1,3E0,2E0,4E0],"tree_param":{"num_deleted":"0","num_feature":"4","num_nodes":"9","size_leaf_vector":"1"}},{"base_weights":[-2.2389004E-2,-6.211943E-1,1.8414998E-1,9.998913E-1,-1.3540878E0,3.540779E-1,-1.5765127E0,-7.950339E-3,2.1190377E-1,-5.6370395E-1,6.3053677E-3,2.0945083E-2,2.2741318E-1,-3.294033E-1,9.2926405E-2],"categories":[],"categories_nodes":[],"categories_segments":[],"categories_sizes":[],"default_left":[0,0,0,0,0,0,0,0,0,0,0,0,0,0,0],"id":42,"left_children":[1,3,5,7,9,11,13,-1,-1,-1,-1,-1,-1,-1,-1],"loss_changes":[5.3088117E0,1.4422854E1,1.0132153E1,5.000473E0,4.8911823E1,7.854435E0,1.5972195E1,0E0,0E0,0E0,0E0,0E0,0E0,0E0,0E0],"parents":[2147483647,0,0,1,1,2,2,3,3,4,4,5,5,6,6],"right_children":[2,4,6,8,10,12,14,-1,-1,-1,-1,-1,-1,-1,-1],"split_conditions":[1.98E2,4E0,4.8E0,3E0,6E0,4.6E0,4E0,-7.950339E-3,2.1190377E-1,-5.6370395E-1,6.3053677E-3,2.0945083E-2,2.2741318E-1,-3.294033E-1,9.2926405E-2],"split_indices":[0,1,3,1,1,3,1,0,0,0,0,0,0,0,0],"split_type":[0,0,0,0,0,0,0,0,0,0,0,0,0,0,0],"sum_hessian":[4.1E1,1E1,3.1E1,3E0,7E0,2.9E1,2E0,2E0,1E0,1E0,6E0,2.8E1,1E0,1E0,1E0],"tree_param":{"num_deleted":"0","num_feature":"4","num_nodes":"15","size_leaf_vector":"1"}},{"base_weights":[-2.828053E-2,4.58789E-2,-1.5344086E-1,-1.3558437E-1,9.466411E-1,-2.5567174E-2,8.5901074E-2,3.563029E-2,1.11151576E-1],"categories":[],"categories_nodes":[],"categories_segments":[],"categories_sizes":[],"default_left":[0,0,0,0,0,0,0,0,0],"id":43,"left_children":[1,3,-1,5,7,-1,-1,-1,-1],"loss_changes":[4.761528E0,6.830015E0,0E0,4.399966E0,2.8528595E-1,0E0,0E0,0E0,0E0],"parents":[2147483647,0,0,1,1,3,3,4,4],"right_children":[2,4,-1,6,8,-1,-1,-1,-1],"split_conditions":[5.3E0,1.1E1,-1.5344086E-1,5E0,3.38E2,-2.5567174E-2,8.5901074E-2,3.563029E-2,1.11151576E-1],"split_indices":[3,1,0,3,0,0,0,0,0],"split_type":[0,0,0,0,0,0,0,0,0],"sum_hessian":[4.1E1,4E1,1E0,3.4E1,6E0,3.1E1,3E0,2E0,4E0],"tree_param":{"num_deleted":"0","num_feature":"4","num_nodes":"9","size_leaf_vector":"1"}},{"base_weights":[-2.417519E-2,-5.923004E-1,1.7187333E-1,9.7006416E-1,-1.2994452E0,3.3139572E-1,-1.4806417E0,-5.7159425E-3,2.0258676E-1,-5.3424037E-1,4.1320804E-3,1.9294687E-2,2.1732064E-1,-3.1165466E-1,8.9558415E-2],"categories":[],"categories_nodes":[],"categories_segments":[],"categories_sizes":[],"default_left":[0,0,0,0,0,0,0,0,0,0,0,0,0,0,0],"id":44,"left_children":[1,3,5,7,9,11,13,-1,-1,-1,-1,-1,-1,-1,-1],"loss_changes":[4.779765E0,1.3413543E1,8.926298E0,4.4539814E0,4.358604E1,7.230583E0,1.4452969E1,0E0,0E0,0E0,0E0,0E0,0E0,0E0,0E0],"parents":[2147483647,0,0,1,1,2,2,3,3,4,4,5,5,6,6],"right_children":[2,4,6,8,10,12,14,-1,-1,-1,-1,-1,-1,-1,-1],"split_conditions":[1.98E2,4E0,4.8E0,3E0,6E0,4.6E0,4E0,-5.7159425E-3,2.0258676E-1,-5.3424037E-1,4.1320804E-3,1.9294687E-2,2.1732064E-1,-3.1165466E-1,8.9558415E-2],"split_indices":[0,1,3,1,1,3,1,0,0,0,0,0,0,0,0],"split_type":[0,0,0,0,0,0,0,0,0,0,0,0,0,0,0],"sum_hessian":[4.1E1,1E1,3.1E1,3E0,7E0,2.9E1,2E0,2E0,1E0,1E0,6E0,2.8E1,1E0,1E0,1E0],"tree_param":{"num_deleted":"0","num_feature":"4","num_nodes":"15","size_leaf_vector":"1"}},{"base_weights":[-2.934683E-2,4.1144952E-2,-1.459755E-1,-1.23516195E-1,8.5857284E-1,-5.358113E-2,1.4446779E-2,3.2474007E-2,1.0071579E-1],"categories":[],"categories_nodes":[],"categories_segments":[],"categories_sizes":[],"default_left":[0,0,0,0,0,0,0,0,0],"id":45,"left_children":[1,3,-1,5,7,-1,-1,-1,-1],"loss_changes":[4.2950063E0,5.6245904E0,0E0,3.9445045E0,2.2817326E-1,0E0,0E0,0E0,0E0],"parents":[2147483647,0,0,1,1,3,3,4,4],"right_children":[2,4,-1,6,8,-1,-1,-1,-1],"split_conditions":[5.3E0,1.1E1,-1.459755E-1,5E-1,3.38E2,-5.358113E-2,1.4446779E-2,3.2474007E-2,1.0071579E-1],"split_indices":[3,1,0,2,0,0,0,0,0],"split_type":[0,0,0,0,0,0,0,0,0],"sum_hessian":[4.1E1,4E1,1E0,3.4E1,6E0,1.3E1,2.1E1,2E0,4E0],"tree_param":{"num_deleted":"0","num_feature":"4","num_nodes":"9","size_leaf_vector":"1"}},{"base_weights":[-2.7649835E-2,3.9323017E-2,-1.3867684E-1,-1.1228463E-1,7.917437E-1,-2.2677017E-2,8.3167076E-2,1.09806314E-1,4.4960327E-2],"categories":[],"categories_nodes":[],"categories_segments":[],"categories_sizes":[],"default_left":[0,0,0,0,0,0,0,0,0],"id":46,"left_children":[1,3,-1,5,7,-1,-1,-1,-1],"loss_changes":[3.8775418E0,4.7658825E0,0E0,3.9710214E0,2.399373E-1,0E0,0E0,0E0,0E0],"parents":[2147483647,0,0,1,1,3,3,4,4],"right_children":[2,4,-1,6,8,-1,-1,-1,-1],"split_conditions":[5.3E0,1.1E1,-1.3867684E-1,5E0,2.5E-1,-2.2677017E-2,8.3167076E-2,1.09806314E-1,4.4960327E-2],"split_indices":[3,1,0,3,2,0,0,0,0],"split_type":[0,0,0,0,0,0,0,0,0],"sum_hessian":[4.1E1,4E1,1E0,3.4E1,6E0,3.1E1,3E0,2E0,4E0],"tree_param":{"num_deleted":"0","num_feature":"4","num_nodes":"9","size_leaf_vector":"1"}},{"base_weights":[-2.3063477E-2,-5.362001E-1,1.5404797E-1,9.4545174E-1,-1.210001E0,-5.863182E-1,4.6924856E-1,-4.7866823E-3,1.9627038E-1,-5.037155E-1,5.6328913E-3,-2.4969815E-1,2.0347023E-2,1.4725304E-1,-6.172037E-3],"categories":[],"categories_nodes":[],"categories_segments":[],"categories_sizes":[],"default_left":[0,0,0,0,0,0,0,0,0,0,0,0,0,0,0],"id":47,"left_children":[1,3,5,7,9,11,13,-1,-1,-1,-1,-1,-1,-1,-1],"loss_changes":[3.89966E0,1.2125719E1,7.7427726E0,4.135769E0,3.9055256E1,1.5598257E1,1.234325E1,0E0,0E0,0E0,0E0,0E0,0E0,0E0,0E0],"parents":[2147483647,0,0,1,1,2,2,3,3,4,4,5,5,6,6],"right_children":[2,4,6,8,10,12,14,-1,-1,-1,-1,-1,-1,-1,-1],"split_conditions":[1.98E2,4E0,4E0,3E0,6E0,5E-1,6E0,-4.7866823E-3,1.9627038E-1,-5.037155E-1,5.6328913E-3,-2.4969815E-1,2.0347023E-2,1.4725304E-1,-6.172037E-3],"split_indices":[0,1,1,1,1,2,1,0,0,0,0,0,0,0,0],"split_type":[0,0,0,0,0,0,0,0,0,0,0,0,0,0,0],"sum_hessian":[4.1E1,1E1,3.1E1,3E0,7E0,9E0,2.2E1,2E0,1E0,1E0,6E0,2E0,7E0,7E0,1.5E1],"tree_param":{"num_deleted":"0","num_feature":"4","num_nodes":"15","size_leaf_vector":"1"}},{"base_weights":[-3.015918E-2,3.350737E-2,-1.3202439E-1,-1.0840498E-1,7.382823E-1,-2.1420194E-2,7.650719E-2,1.0705567E-2,8.256442E-2],"categories":[],"categories_nodes":[],"categories_segments":[],"categories_sizes":[],"default_left":[0,0,0,0,0,0,0,0,0],"id":48,"left_children":[1,3,-1,5,7,-1,-1,-1,-1],"loss_changes":[3.4939177E0,4.180701E0,0E0,3.3982716E0,2.9762626E-1,0E0,0E0,0E0,0E0],"parents":[2147483647,0,0,1,1,3,3,4,4],"right_children":[2,4,-1,6,8,-1,-1,-1,-1],"split_conditions":[5.3E0,1.1E1,-1.3202439E-1,5E0,1.98E2,-2.1420194E-2,7.650719E-2,1.0705567E-2,8.256442E-2],"split_indices":[3,1,0,3,0,0,0,0,0],"split_type":[0,0,0,0,0,0,0,0,0],"sum_hessian":[4.1E1,4E1,1E0,3.4E1,6E0,3.1E1,3E0,1E0,5E0],"tree_param":{"num_deleted":"0","num_feature":"4","num_nodes":"9","size_leaf_vector":"1"}},{"base_weights":[-2.6752109E-2,-5.1055074E-1,1.4038968E-1,9.148426E-1,-1.1594286E0,2.804835E-1,-1.307345E0,-3.0395507E-3,1.8752785E-1,-4.7745857E-1,3.91061E-3,1.4948246E-2,2.0397568E-1,-2.787033E-1,8.260155E-2],"categories":[],"categories_nodes":[],"categories_segments":[],"categories_sizes":[],"default_left":[0,0,0,0,0,0,0,0,0,0,0,0,0,0,0],"id":49,"left_children":[1,3,5,7,9,11,13,-1,-1,-1,-1,-1,-1,-1,-1],"loss_changes":[3.4679208E0,1.1234662E1,6.856887E0,3.6883624E0,3.4849846E1,6.6090913E0,1.1772257E1,0E0,0E0,0E0,0E0,0E0,0E0,0E0,0E0],"parents":[2147483647,0,0,1,1,2,2,3,3,4,4,5,5,6,6],"right_children":[2,4,6,8,10,12,14,-1,-1,-1,-1,-1,-1,-1,-1],"split_conditions":[1.98E2,4E0,4.8E0,3E0,6E0,4.6E0,4E0,-3.0395507E-3,1.8752785E-1,-4.7745857E-1,3.91061E-3,1.4948246E-2,2.0397568E-1,-2.787033E-1,8.260155E-2],"split_indices":[0,1,3,1,1,3,1,0,0,0,0,0,0,0,0],"split_type":[0,0,0,0,0,0,0,0,0,0,0,0,0,0,0],"sum_hessian":[4.1E1,1E1,3.1E1,3E0,7E0,2.9E1,2E0,2E0,1E0,1E0,6E0,2.8E1,1E0,1E0,1E0],"tree_param":{"num_deleted":"0","num_feature":"4","num_nodes":"15","size_leaf_vector":"1"}},{"base_weights":[-3.0415308E-2,-2.1894994E-1,3.6229324E-1,-7.348692E-2,-1.1097221E0,1.0397295E0,-2.7575016E-1,5.641414E-2,-2.929825E-2,-1.869484E-1,-2.3330688E-2,-3.4275055E-2,1.327268E-1,-2.4613517E-3,-1.0168534E-1],"categories":[],"categories_nodes":[],"categories_segments":[],"categories_sizes":[],"default_left":[0,0,0,0,0,0,0,0,0,0,0,0,0,0,0],"id":50,"left_children":[1,3,5,7,9,11,13,-1,-1,-1,-1,-1,-1,-1,-1],"loss_changes":[3.188969E0,3.6761081E0,6.3379784E0,3.8041549E0,2.227304E0,3.237535E0,1.463917E0,0E0,0E0,0E0,0E0,0E0,0E0,0E0,0E0],"parents":[2147483647,0,0,1,1,2,2,3,3,4,4,5,5,6,6],"right_children":[2,4,6,8,10,12,14,-1,-1,-1,-1,-1,-1,-1,-1],"split_conditions":[3.5E0,1.75E0,5.25E0,3.9E0,9E0,2E0,4.4E0,5.641414E-2,-2.929825E-2,-1.869484E-1,-2.3330688E-2,-3.4275055E-2,1.327268E-1,-2.4613517E-3,-1.0168534E-1],"split_indices":[2,2,2,3,1,1,3,0,0,0,0,0,0,0,0],"split_type":[0,0,0,0,0,0,0,0,0,0,0,0,0,0,0],"sum_hessian":[4.1E1,2.8E1,1.3E1,2.5E1,3E0,6E0,7E0,6E0,1.9E1,1E0,2E0,1E0,5E0,6E0,1E0],"tree_param":{"num_deleted":"0","num_feature":"4","num_nodes":"15","size_leaf_vector":"1"}},{"base_weights":[-3.1870525E-2,2.7915023E-2,-1.24153905E-1,-2.3289394E-1,3.7410948E-1,-1.8166988E-1,-6.3344784E-4,-9.429296E-2,9.53196E-2],"categories":[],"categories_nodes":[],"categories_segments":[],"categories_sizes":[],"default_left":[0,0,0,0,0,0,0,0,0],"id":51,"left_children":[1,3,-1,5,7,-1,-1,-1,-1],"loss_changes":[3.0721269E0,3.7890432E0,0E0,8.600316E0,1.4627028E1,0E0,0E0,0E0,0E0],"parents":[2147483647,0,0,1,1,3,3,4,4],"right_children":[2,4,-1,6,8,-1,-1,-1,-1],"split_conditions":[5.3E0,4.2E0,-1.24153905E-1,2.5E-1,5E0,-1.8166988E-1,-6.3344784E-4,-9.429296E-2,9.53196E-2],"split_indices":[3,3,0,2,1,0,0,0,0],"split_type":[0,0,0,0,0,0,0,0,0],"sum_hessian":[4.1E1,4E1,1E0,2.3E1,1.7E1,2E0,2.1E1,5E0,1.2E1],"tree_param":{"num_deleted":"0","num_feature":"4","num_nodes":"9","size_leaf_vector":"1"}},{"base_weights":[-3.5956427E-2,-2.1264385E-1,3.3260727E-1,-7.5511344E-2,-1.0508442E0,9.366542E-1,-2.3750973E-1,5.1633127E-2,-2.7888069E-2,-1.775692E-1,-2.1733094E-2,-3.252983E-2,1.2011961E-1,-8.9067733E-4,-9.188652E-2],"categories":[],"categories_nodes":[],"categories_segments":[],"categories_sizes":[],"default_left":[0,0,0,0,0,0,0,0,0,0,0,0,0,0,0],"id":52,"left_children":[1,3,5,7,9,11,13,-1,-1,-1,-1,-1,-1,-1,-1],"loss_changes":[2.805791E0,3.2540405E0,5.0437484E0,3.2734237E0,2.0307684E0,2.727622E0,1.2378948E0,0E0,0E0,0E0,0E0,0E0,0E0,0E0,0E0],"parents":[2147483647,0,0,1,1,2,2,3,3,4,4,5,5,6,6],"right_children":[2,4,6,8,10,12,14,-1,-1,-1,-1,-1,-1,-1,-1],"split_conditions":[3.5E0,1.75E0,5.25E0,3.9E0,9E0,2E0,4.4E0,5.1633127E-2,-2.7888069E-2,-1.775692E-1,-2.1733094E-2,-3.252983E-2,1.2011961E-1,-8.9067733E-4,-9.188652E-2],"split_indices":[2,2,2,3,1,1,3,0,0,0,0,0,0,0,0],"split_type":[0,0,0,0,0,0,0,0,0,0,0,0,0,0,0],"sum_hessian":[4.1E1,2.8E1,1.3E1,2.5E1,3E0,6E0,7E0,6E0,1.9E1,1E0,2E0,1E0,5E0,6E0,1E0],"tree_param":{"num_deleted":"0","num_feature":"4","num_nodes":"15","size_leaf_vector":"1"}},{"base_weights":[-3.6665052E-2,1.9295298E-2,-1.1655197E-1,-2.3248069E-1,3.5392463E-1,3.7280846E-2,-7.73326E-2,-1.2529336E-1,7.588252E-2],"categories":[],"categories_nodes":[],"categories_segments":[],"categories_sizes":[],"default_left":[0,0,0,0,0,0,0,0,0],"id":53,"left_children":[1,3,-1,5,7,-1,-1,-1,-1],"loss_changes":[2.6756754E0,3.5365975E0,0E0,8.145129E0,1.2661877E1,0E0,0E0,0E0,0E0],"parents":[2147483647,0,0,1,1,3,3,4,4],"right_children":[2,4,-1,6,8,-1,-1,-1,-1],"split_conditions":[5.3E0,4.2E0,-1.1655197E-1,5E0,4E0,3.7280846E-2,-7.73326E-2,-1.2529336E-1,7.588252E-2],"split_indices":[3,3,0,1,1,0,0,0,0],"split_type":[0,0,0,0,0,0,0,0,0],"sum_hessian":[4.1E1,4E1,1E0,2.3E1,1.7E1,1.1E1,1.2E1,3E0,1.4E1],"tree_param":{"num_deleted":"0","num_feature":"4","num_nodes":"9","size_leaf_vector":"1"}},{"base_weights":[-3.7903015E-2,-4.5972025E-1,1.08281136E-1,9.3014145E-1,-1.0971861E0,-5.249306E-1,3.788827E-1,-1.4678956E-3,1.8823014E-1,-4.3777657E-1,-3.136771E-4,-2.1292165E-1,1.4229298E-2,1.22791864E-1,-6.9315434E-3],"categories":[],"categories_nodes":[],"categories_segments":[],"categories_sizes":[],"default_left":[0,0,0,0,0,0,0,0,0,0,0,0,0,0,0],"id":54,"left_children":[1,3,5,7,9,11,13,-1,-1,-1,-1,-1,-1,-1,-1],"loss_changes":[2.639625E0,1.0766421E1,5.682026E0,3.626111E0,2.8699196E1,1.1007147E1,8.837448E0,0E0,0E0,0E0,0E0,0E0,0E0,0E0,0E0],"parents":[2147483647,0,0,1,1,2,2,3,3,4,4,5,5,6,6],"right_children":[2,4,6,8,10,12,14,-1,-1,-1,-1,-1,-1,-1,-1],"split_conditions":[1.98E2,4E0,4E0,3E0,6E0,5E-1,6E0,-1.4678956E-3,1.8823014E-1,-4.3777657E-1,-3.136771E-4,-2.1292165E-1,1.4229298E-2,1.22791864E-1,-6.9315434E-3],"split_indices":[0,1,1,1,1,2,1,0,0,0,0,0,0,0,0],"split_type":[0,0,0,0,0,0,0,0,0,0,0,0,0,0,0],"sum_hessian":[4.1E1,1E1,3.1E1,3E0,7E0,9E0,2.2E1,2E0,1E0,1E0,6E0,2E0,7E0,7E0,1.5E1],"tree_param":{"num_deleted":"0","num_feature":"4","num_nodes":"15","size_leaf_vector":"1"}},{"base_weights":[-4.206848E-2,1.0909662E-2,-1.1070862E-1,-1.1971632E-1,6.62481E-1,-2.0837402E-2,6.1947443E-2,4.2892457E-3,7.585971E-2],"categories":[],"categories_nodes":[],"categories_segments":[],"categories_sizes":[],"default_left":[0,0,0,0,0,0,0,0,0],"id":55,"left_children":[1,3,-1,5,7,-1,-1,-1,-1],"loss_changes":[2.3818297E0,3.5689077E0,0E0,2.4228058E0,3.843286E-1,0E0,0E0,0E0,0E0],"parents":[2147483647,0,0,1,1,3,3,4,4],"right_children":[2,4,-1,6,8,-1,-1,-1,-1],"split_conditions":[5.3E0,1.1E1,-1.1070862E-1,5E0,1.98E2,-2.0837402E-2,6.1947443E-2,4.2892457E-3,7.585971E-2],"split_indices":[3,1,0,3,0,0,0,0,0],"split_type":[0,0,0,0,0,0,0,0,0],"sum_hessian":[4.1E1,4E1,1E0,3.4E1,6E0,3.1E1,3E0,1E0,5E0],"tree_param":{"num_deleted":"0","num_feature":"4","num_nodes":"9","size_leaf_vector":"1"}},{"base_weights":[-3.7611645E-2,-4.3434766E-1,9.994173E-2,8.994427E-1,-1.0469494E0,-4.7355422E-1,3.449425E-1,1.8819173E-5,1.7986031E-1,-4.1484603E-1,-1.1239188E-3,-1.9733785E-1,1.4807415E-2,1.13870434E-1,-7.3497295E-3],"categories":[],"categories_nodes":[],"categories_segments":[],"categories_sizes":[],"default_left":[0,0,0,0,0,0,0,0,0,0,0,0,0,0,0],"id":56,"left_children":[1,3,5,7,9,11,13,-1,-1,-1,-1,-1,-1,-1,-1],"loss_changes":[2.3354497E0,9.929576E0,4.659571E0,3.2339575E0,2.5651508E1,9.61554E0,7.722946E0,0E0,0E0,0E0,0E0,0E0,0E0,0E0,0E0],"parents":[2147483647,0,0,1,1,2,2,3,3,4,4,5,5,6,6],"right_children":[2,4,6,8,10,12,14,-1,-1,-1,-1,-1,-1,-1,-1],"split_conditions":[1.98E2,4E0,4E0,3E0,6E0,5E-1,6E0,1.8819173E-5,1.7986031E-1,-4.1484603E-1,-1.1239188E-3,-1.9733785E-1,1.4807415E-2,1.13870434E-1,-7.3497295E-3],"split_indices":[0,1,1,1,1,2,1,0,0,0,0,0,0,0,0],"split_type":[0,0,0,0,0,0,0,0,0,0,0,0,0,0,0],"sum_hessian":[4.1E1,1E1,3.1E1,3E0,7E0,9E0,2.2E1,2E0,1E0,1E0,6E0,2E0,7E0,7E0,1.5E1],"tree_param":{"num_deleted":"0","num_feature":"4","num_nodes":"15","size_leaf_vector":"1"}},{"base_weights":[-4.1282654E-2,8.987054E-3,-1.0511704E-1,-1.12090625E-1,6.130916E-1,-2.2779135E-2,3.832539E-2,4.1309358E-3,7.0150375E-2],"categories":[],"categories_nodes":[],"categories_segments":[],"categories_sizes":[],"default_left":[0,0,0,0,0,0,0,0,0],"id":57,"left_children":[1,3,-1,5,7,-1,-1,-1,-1],"loss_changes":[2.141651E0,3.0676086E0,0E0,2.0932124E0,3.2488894E-1,0E0,0E0,0E0,0E0],"parents":[2147483647,0,0,1,1,3,3,4,4],"right_children":[2,4,-1,6,8,-1,-1,-1,-1],"split_conditions":[5.3E0,1.1E1,-1.0511704E-1,4.7E0,1.98E2,-2.2779135E-2,3.832539E-2,4.1309358E-3,7.0150375E-2],"split_indices":[3,1,0,3,0,0,0,0,0],"split_type":[0,0,0,0,0,0,0,0,0],"sum_hessian":[4.1E1,4E1,1E0,3.4E1,6E0,2.8E1,6E0,1E0,5E0],"tree_param":{"num_deleted":"0","num_feature":"4","num_nodes":"9","size_leaf_vector":"1"}},{"base_weights":[-3.751664E-2,-4.0329188E-1,8.939099E-2,8.715553E-1,-9.90304E-1,2.0318247E-1,-1.0783209E0,1.5365601E-3,1.7200623E-1,-3.9296457E-1,-9.0201246E-4,8.924524E-3,1.7536812E-1,-2.3129158E-1,6.954346E-2],"categories":[],"categories_nodes":[],"categories_segments":[],"categories_sizes":[],"default_left":[0,0,0,0,0,0,0,0,0,0,0,0,0,0,0],"id":58,"left_children":[1,3,5,7,9,11,13,-1,-1,-1,-1,-1,-1,-1,-1],"loss_changes":[1.9856768E0,9.094963E0,4.471117E0,2.8795016E0,2.3039183E1,5.1432786E0,8.17809E0,0E0,0E0,0E0,0E0,0E0,0E0,0E0,0E0],"parents":[2147483647,0,0,1,1,2,2,3,3,4,4,5,5,6,6],"right_children":[2,4,6,8,10,12,14,-1,-1,-1,-1,-1,-1,-1,-1],"split_conditions":[1.98E2,4E0,4.8E0,3E0,6E0,4.6E0,4E0,1.5365601E-3,1.7200623E-1,-3.9296457E-1,-9.0201246E-4,8.924524E-3,1.7536812E-1,-2.3129158E-1,6.954346E-2],"split_indices":[0,1,3,1,1,3,1,0,0,0,0,0,0,0,0],"split_type":[0,0,0,0,0,0,0,0,0,0,0,0,0,0,0],"sum_hessian":[4.1E1,1E1,3.1E1,3E0,7E0,2.9E1,2E0,2E0,1E0,1E0,6E0,2.8E1,1E0,1E0,1E0],"tree_param":{"num_deleted":"0","num_feature":"4","num_nodes":"15","size_leaf_vector":"1"}},{"base_weights":[-3.847522E-2,9.2771575E-3,-9.9816136E-2,-1.0036163E-1,5.561458E-1,-1.7799377E-2,5.457859E-2,8.6273454E-2,2.6096344E-2],"categories":[],"categories_nodes":[],"categories_segments":[],"categories_sizes":[],"default_left":[0,0,0,0,0,0,0,0,0],"id":59,"left_children":[1,3,-1,5,7,-1,-1,-1,-1],"loss_changes":[1.9340063E0,2.5140946E0,0E0,1.8528101E0,4.0835476E-1,0E0,0E0,0E0,0E0],"parents":[2147483647,0,0,1,1,3,3,4,4],"right_children":[2,4,-1,6,8,-1,-1,-1,-1],"split_conditions":[5.3E0,1.1E1,-9.9816136E-2,5E0,2.5E-1,-1.7799377E-2,5.457859E-2,8.6273454E-2,2.6096344E-2],"split_indices":[3,1,0,3,2,0,0,0,0],"split_type":[0,0,0,0,0,0,0,0,0],"sum_hessian":[4.1E1,4E1,1E0,3.4E1,6E0,3.1E1,3E0,2E0,4E0],"tree_param":{"num_deleted":"0","num_feature":"4","num_nodes":"9","size_leaf_vector":"1"}},{"base_weights":[-3.3453077E-2,-1.7949782E-1,2.7145767E-1,-5.4687794E-2,-9.458885E-1,4.4663885E-1,-1.0029488E-1,-1.8939905E-2,7.3357396E-2,-1.6148567E-1,-1.8461354E-2,-3.900172E-2,6.342142E-2],"categories":[],"categories_nodes":[],"categories_segments":[],"categories_sizes":[],"default_left":[0,0,0,0,0,0,0,0,0,0,0,0,0],"id":60,"left_children":[1,3,5,7,9,11,-1,-1,-1,-1,-1,-1,-1],"loss_changes":[1.9190116E0,2.7222154E0,3.5734844E0,2.8998194E0,1.7389505E0,2.2875237E0,0E0,0E0,0E0,0E0,0E0,0E0,0E0],"parents":[2147483647,0,0,1,1,2,2,3,3,4,4,5,5],"right_children":[2,4,6,8,10,12,-1,-1,-1,-1,-1,-1,-1],"split_conditions":[3.5E0,1.75E0,4.4E0,1E0,9E0,2E0,-1.0029488E-1,-1.8939905E-2,7.3357396E-2,-1.6148567E-1,-1.8461354E-2,-3.900172E-2,6.342142E-2],"split_indices":[2,2,3,2,1,1,0,0,0,0,0,0,0],"split_type":[0,0,0,0,0,0,0,0,0,0,0,0,0],"sum_hessian":[4.1E1,2.8E1,1.3E1,2.5E1,3E0,1.2E1,1E0,2.2E1,3E0,1E0,2E0,2E0,1E1],"tree_param":{"num_deleted":"0","num_feature":"4","num_nodes":"13","size_leaf_vector":"1"}},{"base_weights":[-3.490539E-2,1.0037678E-2,-9.387856E-2,-1.9190376E-1,2.7873528E-1,3.2504845E-2,-6.543286E-2,-7.500204E-2,7.321044E-2],"categories":[],"categories_nodes":[],"categories_segments":[],"categories_sizes":[],"default_left":[0,0,0,0,0,0,0,0,0],"id":61,"left_children":[1,3,-1,5,7,-1,-1,-1,-1],"loss_changes":[1.7155954E0,2.2781987E0,0E0,5.949925E0,8.944401E0,0E0,0E0,0E0,0E0],"parents":[2147483647,0,0,1,1,3,3,4,4],"right_children":[2,4,-1,6,8,-1,-1,-1,-1],"split_conditions":[5.3E0,4.2E0,-9.387856E-2,5E0,5E0,3.2504845E-2,-6.543286E-2,-7.500204E-2,7.321044E-2],"split_indices":[3,3,0,1,1,0,0,0,0],"split_type":[0,0,0,0,0,0,0,0,0],"sum_hessian":[4.1E1,4E1,1E0,2.3E1,1.7E1,1.1E1,1.2E1,5E0,1.2E1],"tree_param":{"num_deleted":"0","num_feature":"4","num_nodes":"9","size_leaf_vector":"1"}},{"base_weights":[-3.447669E-2,-3.9900067E-1,9.190583E-2,8.3096313E-1,-9.641075E-1,1.9302393E-1,-9.4991046E-1,1.7166138E-3,1.6361772E-1,-3.6820793E-1,-4.98145E-3,8.604142E-3,1.6477585E-1,-2.1413994E-1,7.1653366E-2],"categories":[],"categories_nodes":[],"categories_segments":[],"categories_sizes":[],"default_left":[0,0,0,0,0,0,0,0,0,0,0,0,0,0,0],"id":62,"left_children":[1,3,5,7,9,11,13,-1,-1,-1,-1,-1,-1,-1,-1],"loss_changes":[1.9715879E0,8.446809E0,3.5544434E0,2.593036E0,1.9696758E1,4.527159E0,7.4910336E0,0E0,0E0,0E0,0E0,0E0,0E0,0E0,0E0],"parents":[2147483647,0,0,1,1,2,2,3,3,4,4,5,5,6,6],"right_children":[2,4,6,8,10,12,14,-1,-1,-1,-1,-1,-1,-1,-1],"split_conditions":[1.98E2,4E0,4.8E0,3E0,6E0,4.6E0,4E0,1.7166138E-3,1.6361772E-1,-3.6820793E-1,-4.98145E-3,8.604142E-3,1.6477585E-1,-2.1413994E-1,7.1653366E-2],"split_indices":[0,1,3,1,1,3,1,0,0,0,0,0,0,0,0],"split_type":[0,0,0,0,0,0,0,0,0,0,0,0,0,0,0],"sum_hessian":[4.1E1,1E1,3.1E1,3E0,7E0,2.9E1,2E0,2E0,1E0,1E0,6E0,2.8E1,1E0,1E0,1E0],"tree_param":{"num_deleted":"0","num_feature":"4","num_nodes":"15","size_leaf_vector":"1"}},{"base_weights":[-3.5243623E-2,-3.7799627E-1,8.367896E-2,7.891998E-1,-9.143448E-1,1.7949906E-1,-9.02415E-1,1.6021729E-3,1.5543671E-1,-3.4979746E-1,-4.5544216E-3,7.773222E-3,1.5653686E-1,-2.0343284E-1,6.8070605E-2],"categories":[],"categories_nodes":[],"categories_segments":[],"categories_sizes":[],"default_left":[0,0,0,0,0,0,0,0,0,0,0,0,0,0,0],"id":63,"left_children":[1,3,5,7,9,11,13,-1,-1,-1,-1,-1,-1,-1,-1],"loss_changes":[1.7435937E0,7.607863E0,3.1855862E0,2.3415384E0,1.7797958E1,4.1093874E0,6.760648E0,0E0,0E0,0E0,0E0,0E0,0E0,0E0,0E0],"parents":[2147483647,0,0,1,1,2,2,3,3,4,4,5,5,6,6],"right_children":[2,4,6,8,10,12,14,-1,-1,-1,-1,-1,-1,-1,-1],"split_conditions":[1.98E2,4E0,4.8E0,3E0,6E0,4.6E0,4E0,1.6021729E-3,1.5543671E-1,-3.4979746E-1,-4.5544216E-3,7.773222E-3,1.5653686E-1,-2.0343284E-1,6.8070605E-2],"split_indices":[0,1,3,1,1,3,1,0,0,0,0,0,0,0,0],"split_type":[0,0,0,0,0,0,0,0,0,0,0,0,0,0,0],"sum_hessian":[4.1E1,1E1,3.1E1,3E0,7E0,2.9E1,2E0,2E0,1E0,1E0,6E0,2.8E1,1E0,1E0,1E0],"tree_param":{"num_deleted":"0","num_feature":"4","num_nodes":"15","size_leaf_vector":"1"}},{"base_weights":[-3.5728637E-2,-1.6698061E-1,2.387025E-1,-5.4016992E-2,-8.59499E-1,3.991394E-1,-9.2348866E-2,-1.8547026E-2,7.153435E-2,-1.5095901E-1,-1.3960521E-2,-3.6076866E-2,5.701017E-2],"categories":[],"categories_nodes":[],"categories_segments":[],"categories_sizes":[],"default_left":[0,0,0,0,0,0,0,0,0,0,0,0,0],"id":64,"left_children":[1,3,5,7,9,11,-1,-1,-1,-1,-1,-1,-1],"loss_changes":[1.552683E0,2.2222245E0,2.9790177E0,2.7621832E0,1.6612399E0,1.8945773E0,0E0,0E0,0E0,0E0,0E0,0E0,0E0],"parents":[2147483647,0,0,1,1,2,2,3,3,4,4,5,5],"right_children":[2,4,6,8,10,12,-1,-1,-1,-1,-1,-1,-1],"split_conditions":[3.5E0,1.75E0,4.4E0,1E0,9E0,2E0,-9.2348866E-2,-1.8547026E-2,7.153435E-2,-1.5095901E-1,-1.3960521E-2,-3.6076866E-2,5.701017E-2],"split_indices":[2,2,3,2,1,1,0,0,0,0,0,0,0],"split_type":[0,0,0,0,0,0,0,0,0,0,0,0,0],"sum_hessian":[4.1E1,2.8E1,1.3E1,2.5E1,3E0,1.2E1,1E0,2.2E1,3E0,1E0,2E0,2E0,1E1],"tree_param":{"num_deleted":"0","num_feature":"4","num_nodes":"13","size_leaf_vector":"1"}},{"base_weights":[-3.6520094E-2,5.4088687E-3,-8.778038E-2,-9.546509E-2,5.0900596E-1,4.020603E-3,-4.3866348E-2,8.451589E-3,6.618988E-2],"categories":[],"categories_nodes":[],"categories_segments":[],"categories_sizes":[],"default_left":[0,0,0,0,0,0,0,0,0],"id":65,"left_children":[1,3,-1,5,7,-1,-1,-1,-1],"loss_changes":[1.4862624E0,2.1313853E0,0E0,1.6473107E0,3.9836955E-1,0E0,0E0,0E0,0E0],"parents":[2147483647,0,0,1,1,3,3,4,4],"right_children":[2,4,-1,6,8,-1,-1,-1,-1],"split_conditions":[5.3E0,1.1E1,-8.778038E-2,8E0,3.38E2,4.020603E-3,-4.3866348E-2,8.451589E-3,6.618988E-2],"split_indices":[3,1,0,1,0,0,0,0,0],"split_type":[0,0,0,0,0,0,0,0,0],"sum_hessian":[4.1E1,4E1,1E0,3.4E1,6E0,2.5E1,9E0,2E0,4E0],"tree_param":{"num_deleted":"0","num_feature":"4","num_nodes":"9","size_leaf_vector":"1"}},{"base_weights":[-3.412937E-2,5.7168356E-3,-8.339119E-2,-1.8419075E-1,2.5860935E-1,2.530829E-2,-5.736595E-2,-6.346639E-2,6.509963E-2],"categories":[],"categories_nodes":[],"categories_segments":[],"categories_sizes":[],"default_left":[0,0,0,0,0,0,0,0,0],"id":66,"left_children":[1,3,-1,5,7,-1,-1,-1,-1],"loss_changes":[1.3432359E0,2.016708E0,0E0,4.232489E0,6.7223215E0,0E0,0E0,0E0,0E0],"parents":[2147483647,0,0,1,1,3,3,4,4],"right_children":[2,4,-1,6,8,-1,-1,-1,-1],"split_conditions":[5.3E0,4.2E0,-8.339119E-2,5E0,5E0,2.530829E-2,-5.736595E-2,-6.346639E-2,6.509963E-2],"split_indices":[3,3,0,1,1,0,0,0,0],"split_type":[0,0,0,0,0,0,0,0,0],"sum_hessian":[4.1E1,4E1,1E0,2.3E1,1.7E1,1.1E1,1.2E1,5E0,1.2E1],"tree_param":{"num_deleted":"0","num_feature":"4","num_nodes":"9","size_leaf_vector":"1"}},{"base_weights":[-3.3426374E-2,-2.4228026E-1,1.3330905E-1,-7.9712296E-1,1.2815203E-2,3.617675E-1,-3.6882877E-1,4.6065714E-2,-2.2084554E-1,-1.8936157E-1,3.051265E-2,-1.3229371E-3,1.0514666E-1,-1.22892E-1,1.2268829E-2],"categories":[],"categories_nodes":[],"categories_segments":[],"categories_sizes":[],"default_left":[0,0,0,0,0,0,0,0,0,0,0,0,0,0,0],"id":67,"left_children":[1,3,5,7,9,11,13,-1,-1,-1,-1,-1,-1,-1,-1],"loss_changes":[1.4948784E0,2.6994348E0,2.8866532E0,1.1668215E1,8.37959E0,4.4107046E0,3.5327702E0,0E0,0E0,0E0,0E0,0E0,0E0,0E0,0E0],"parents":[2147483647,0,0,1,1,2,2,3,3,4,4,5,5,6,6],"right_children":[2,4,6,8,10,12,14,-1,-1,-1,-1,-1,-1,-1,-1],"split_conditions":[7.5E-1,4.2E0,8E0,4E0,4E0,5E0,1E1,4.6065714E-2,-2.2084554E-1,-1.8936157E-1,3.051265E-2,-1.3229371E-3,1.0514666E-1,-1.22892E-1,1.2268829E-2],"split_indices":[2,3,1,1,1,1,1,0,0,0,0,0,0,0,0],"split_type":[0,0,0,0,0,0,0,0,0,0,0,0,0,0,0],"sum_hessian":[4.1E1,1.8E1,2.3E1,5E0,1.3E1,1.6E1,7E0,3E0,2E0,1E0,1.2E1,1.1E1,5E0,2E0,5E0],"tree_param":{"num_deleted":"0","num_feature":"4","num_nodes":"15","size_leaf_vector":"1"}},{"base_weights":[-3.8189117E-2,-3.4813413E-1,6.954789E-2,7.3059845E-1,-8.4398365E-1,-3.6176604E-1,2.5405186E-1,8.6466473E-4,1.448227E-1,-3.1767043E-1,-5.6922915E-3,-1.5303217E-1,1.2166309E-2,9.091578E-2,-8.937932E-3],"categories":[],"categories_nodes":[],"categories_segments":[],"categories_sizes":[],"default_left":[0,0,0,0,0,0,0,0,0,0,0,0,0,0,0],"id":68,"left_children":[1,3,5,7,9,11,13,-1,-1,-1,-1,-1,-1,-1,-1],"loss_changes":[1.4266989E0,6.500393E0,2.63844E0,2.0598505E0,1.4507116E1,5.8353224E0,5.255887E0,0E0,0E0,0E0,0E0,0E0,0E0,0E0,0E0],"parents":[2147483647,0,0,1,1,2,2,3,3,4,4,5,5,6,6],"right_children":[2,4,6,8,10,12,14,-1,-1,-1,-1,-1,-1,-1,-1],"split_conditions":[1.98E2,4E0,4E0,3E0,6E0,5E-1,6E0,8.6466473E-4,1.448227E-1,-3.1767043E-1,-5.6922915E-3,-1.5303217E-1,1.2166309E-2,9.091578E-2,-8.937932E-3],"split_indices":[0,1,1,1,1,2,1,0,0,0,0,0,0,0,0],"split_type":[0,0,0,0,0,0,0,0,0,0,0,0,0,0,0],"sum_hessian":[4.1E1,1E1,3.1E1,3E0,7E0,9E0,2.2E1,2E0,1E0,1E0,6E0,2E0,7E0,7E0,1.5E1],"tree_param":{"num_deleted":"0","num_feature":"4","num_nodes":"15","size_leaf_vector":"1"}},{"base_weights":[-4.000237E-2,-3.2947263E-1,6.0753107E-2,6.939621E-1,-8.000059E-1,-2.6871708E-1,3.003231E-1,8.0718996E-4,1.3758163E-1,-3.017868E-1,-5.204446E-3,1.978857E-3,-9.949284E-2,1.7505208E-1,-8.099652E-3],"categories":[],"categories_nodes":[],"categories_segments":[],"categories_sizes":[],"default_left":[0,0,0,0,0,0,0,0,0,0,0,0,0,0,0],"id":69,"left_children":[1,3,5,7,9,11,13,-1,-1,-1,-1,-1,-1,-1,-1],"loss_changes":[1.2449765E0,5.852335E0,2.6064992E0,1.8596033E0,1.3113941E1,2.9529133E0,1.0648573E1,0E0,0E0,0E0,0E0,0E0,0E0,0E0,0E0],"parents":[2147483647,0,0,1,1,2,2,3,3,4,4,5,5,6,6],"right_children":[2,4,6,8,10,12,14,-1,-1,-1,-1,-1,-1,-1,-1],"split_conditions":[1.98E2,4E0,5E0,3E0,6E0,4.4E0,6E0,8.0718996E-4,1.3758163E-1,-3.017868E-1,-5.204446E-3,1.978857E-3,-9.949284E-2,1.7505208E-1,-8.099652E-3],"split_indices":[0,1,1,1,1,3,1,0,0,0,0,0,0,0,0],"split_type":[0,0,0,0,0,0,0,0,0,0,0,0,0,0,0],"sum_hessian":[4.1E1,1E1,3.1E1,3E0,7E0,1.3E1,1.8E1,2E0,1E0,1E0,6E0,1E1,3E0,3E0,1.5E1],"tree_param":{"num_deleted":"0","num_feature":"4","num_nodes":"15","size_leaf_vector":"1"}},{"base_weights":[-3.8361322E-2,-1.7380132E-4,-8.020248E-2,-1.03053935E-1,5.142517E-1,-2.0884048E-2,3.4992654E-2,-6.31218E-3,6.2100094E-2],"categories":[],"categories_nodes":[],"categories_segments":[],"categories_sizes":[],"default_left":[0,0,0,0,0,0,0,0,0],"id":70,"left_children":[1,3,-1,5,7,-1,-1,-1,-1],"loss_changes":[1.2246821E0,2.2228866E0,0E0,1.7502519E0,4.7063792E-1,0E0,0E0,0E0,0E0],"parents":[2147483647,0,0,1,1,3,3,4,4],"right_children":[2,4,-1,6,8,-1,-1,-1,-1],"split_conditions":[5.3E0,1.1E1,-8.020248E-2,4.7E0,1.98E2,-2.0884048E-2,3.4992654E-2,-6.31218E-3,6.2100094E-2],"split_indices":[3,1,0,3,0,0,0,0,0],"split_type":[0,0,0,0,0,0,0,0,0],"sum_hessian":[4.1E1,4E1,1E0,3.4E1,6E0,2.8E1,6E0,1E0,5E0],"tree_param":{"num_deleted":"0","num_feature":"4","num_nodes":"9","size_leaf_vector":"1"}},{"base_weights":[-3.4773145E-2,1.5457898E-3,-7.6192476E-2,-9.2347935E-2,4.7079358E-1,-1.8867888E-2,3.1992994E-2,5.2757263E-3,6.274567E-2],"categories":[],"categories_nodes":[],"categories_segments":[],"categories_sizes":[],"default_left":[0,0,0,0,0,0,0,0,0],"id":71,"left_children":[1,3,-1,5,7,-1,-1,-1,-1],"loss_changes":[1.1103715E0,1.8499131E0,0E0,1.4503931E0,4.2533314E-1,0E0,0E0,0E0,0E0],"parents":[2147483647,0,0,1,1,3,3,4,4],"right_children":[2,4,-1,6,8,-1,-1,-1,-1],"split_conditions":[5.3E0,1.1E1,-7.6192476E-2,4.7E0,3.38E2,-1.8867888E-2,3.1992994E-2,5.2757263E-3,6.274567E-2],"split_indices":[3,1,0,3,0,0,0,0,0],"split_type":[0,0,0,0,0,0,0,0,0],"sum_hessian":[4.1E1,4E1,1E0,3.4E1,6E0,2.8E1,6E0,2E0,4E0],"tree_param":{"num_deleted":"0","num_feature":"4","num_nodes":"9","size_leaf_vector":"1"}},{"base_weights":[-3.117752E-2,-1.4501138E-1,2.0684814E-1,-4.784628E-2,-7.4033165E-1,3.4933943E-1,-8.227692E-2,-1.5751017E-2,5.946827E-2,-1.2936477E-1,-1.2467703E-2,-3.0872598E-2,4.9705368E-2],"categories":[],"categories_nodes":[],"categories_segments":[],"categories_sizes":[],"default_left":[0,0,0,0,0,0,0,0,0,0,0,0,0],"id":72,"left_children":[1,3,5,7,9,11,-1,-1,-1,-1,-1,-1,-1],"loss_changes":[1.1680012E0,1.6420641E0,2.3413863E0,1.9256866E0,1.2013183E0,1.4171268E0,0E0,0E0,0E0,0E0,0E0,0E0,0E0],"parents":[2147483647,0,0,1,1,2,2,3,3,4,4,5,5],"right_children":[2,4,6,8,10,12,-1,-1,-1,-1,-1,-1,-1],"split_conditions":[3.5E0,1.75E0,4.4E0,1E0,9E0,2E0,-8.227692E-2,-1.5751017E-2,5.946827E-2,-1.2936477E-1,-1.2467703E-2,-3.0872598E-2,4.9705368E-2],"split_indices":[2,2,3,2,1,1,0,0,0,0,0,0,0],"split_type":[0,0,0,0,0,0,0,0,0,0,0,0,0],"sum_hessian":[4.1E1,2.8E1,1.3E1,2.5E1,3E0,1.2E1,1E0,2.2E1,3E0,1E0,2E0,2E0,1E1],"tree_param":{"num_deleted":"0","num_feature":"4","num_nodes":"13","size_leaf_vector":"1"}},{"base_weights":[-3.1904675E-2,2.2415533E-3,-7.1595006E-2,-8.2926944E-2,4.277638E-1,-1.7394967E-2,3.0601392E-2,1.6001588E-2,7.3142245E-2],"categories":[],"categories_nodes":[],"categories_segments":[],"categories_sizes":[],"default_left":[0,0,0,0,0,0,0,0,0],"id":73,"left_children":[1,3,-1,5,7,-1,-1,-1,-1],"loss_changes":[9.8262274E-1,1.5213579E0,0E0,1.2923172E0,4.5208848E-1,0E0,0E0,0E0,0E0],"parents":[2147483647,0,0,1,1,3,3,4,4],"right_children":[2,4,-1,6,8,-1,-1,-1,-1],"split_conditions":[5.3E0,1.1E1,-7.1595006E-2,4.7E0,6.84E2,-1.7394967E-2,3.0601392E-2,1.6001588E-2,7.3142245E-2],"split_indices":[3,1,0,3,0,0,0,0,0],"split_type":[0,0,0,0,0,0,0,0,0],"sum_hessian":[4.1E1,4E1,1E0,3.4E1,6E0,2.8E1,6E0,4E0,2E0],"tree_param":{"num_deleted":"0","num_feature":"4","num_nodes":"9","size_leaf_vector":"1"}},{"base_weights":[-2.7981713E-2,-2.0445493E-1,1.1289215E-1,-6.46478E-1,-4.1253227E-4,3.2572353E-1,-3.5348606E-1,4.4440843E-2,-1.8855006E-1,-1.7135887E-1,2.6318476E-2,1.8929163E-3,8.8502504E-2,-6.115679E-2,7.2654344E-2],"categories":[],"categories_nodes":[],"categories_segments":[],"categories_sizes":[],"default_left":[0,0,0,0,0,0,0,0,0,0,0,0,0,0,0],"id":74,"left_children":[1,3,5,7,9,11,13,-1,-1,-1,-1,-1,-1,-1,-1],"loss_changes":[1.0672208E0,1.7133708E0,2.497377E0,8.94773E0,6.773231E0,2.9002867E0,2.6742184E0,0E0,0E0,0E0,0E0,0E0,0E0,0E0,0E0],"parents":[2147483647,0,0,1,1,2,2,3,3,4,4,5,5,6,6],"right_children":[2,4,6,8,10,12,14,-1,-1,-1,-1,-1,-1,-1,-1],"split_conditions":[7.5E-1,4.2E0,8E0,4E0,4E0,5E0,1.2E1,4.4440843E-2,-1.8855006E-1,-1.7135887E-1,2.6318476E-2,1.8929163E-3,8.8502504E-2,-6.115679E-2,7.2654344E-2],"split_indices":[2,3,1,1,1,1,1,0,0,0,0,0,0,0,0],"split_type":[0,0,0,0,0,0,0,0,0,0,0,0,0,0,0],"sum_hessian":[4.1E1,1.8E1,2.3E1,5E0,1.3E1,1.6E1,7E0,3E0,2E0,1E0,1.2E1,1.1E1,5E0,6E0,1E0],"tree_param":{"num_deleted":"0","num_feature":"4","num_nodes":"15","size_leaf_vector":"1"}},{"base_weights":[-2.9642377E-2,-1.992296E-1,1.05849266E-1,-6.0584766E-1,-1.0734013E-2,2.9846954E-1,-3.1669998E-1,4.110775E-2,-1.7597987E-1,-1.6279106E-1,2.388881E-2,1.7194748E-3,8.112743E-2,-1.0302073E-1,9.283702E-3],"categories":[],"categories_nodes":[],"categories_segments":[],"categories_sizes":[],"default_left":[0,0,0,0,0,0,0,0,0,0,0,0,0,0,0],"id":75,"left_children":[1,3,5,7,9,11,13,-1,-1,-1,-1,-1,-1,-1,-1],"loss_changes":[9.861496E-1,1.4497654E0,2.0479226E0,7.764304E0,6.0404506E0,2.4381137E0,2.4333024E0,0E0,0E0,0E0,0E0,0E0,0E0,0E0,0E0],"parents":[2147483647,0,0,1,1,2,2,3,3,4,4,5,5,6,6],"right_children":[2,4,6,8,10,12,14,-1,-1,-1,-1,-1,-1,-1,-1],"split_conditions":[7.5E-1,4.2E0,8E0,4E0,4E0,5E0,1E1,4.110775E-2,-1.7597987E-1,-1.6279106E-1,2.388881E-2,1.7194748E-3,8.112743E-2,-1.0302073E-1,9.283702E-3],"split_indices":[2,3,1,1,1,1,1,0,0,0,0,0,0,0,0],"split_type":[0,0,0,0,0,0,0,0,0,0,0,0,0,0,0],"sum_hessian":[4.1E1,1.8E1,2.3E1,5E0,1.3E1,1.6E1,7E0,3E0,2E0,1E0,1.2E1,1.1E1,5E0,2E0,5E0],"tree_param":{"num_deleted":"0","num_feature":"4","num_nodes":"15","size_leaf_vector":"1"}},{"base_weights":[-3.345544E-2,1.3137446E-4,-7.052574E-2,-8.7559946E-2,4.3856922E-1,-1.7607538E-2,2.916554E-2,1.4153595E-2,7.874349E-2],"categories":[],"categories_nodes":[],"categories_segments":[],"categories_sizes":[],"default_left":[0,0,0,0,0,0,0,0,0],"id":76,"left_children":[1,3,-1,5,7,-1,-1,-1,-1],"loss_changes":[9.477676E-1,1.614736E0,0E0,1.2261777E0,6.139227E-1,0E0,0E0,0E0,0E0],"parents":[2147483647,0,0,1,1,3,3,4,4],"right_children":[2,4,-1,6,8,-1,-1,-1,-1],"split_conditions":[5.3E0,1.1E1,-7.052574E-2,4.7E0,6.84E2,-1.7607538E-2,2.916554E-2,1.4153595E-2,7.874349E-2],"split_indices":[3,1,0,3,0,0,0,0,0],"split_type":[0,0,0,0,0,0,0,0,0],"sum_hessian":[4.1E1,4E1,1E0,3.4E1,6E0,2.8E1,6E0,4E0,2E0],"tree_param":{"num_deleted":"0","num_feature":"4","num_nodes":"9","size_leaf_vector":"1"}},{"base_weights":[-2.9301416E-2,-1.3516209E-1,1.9207437E-1,-5.4632626E-2,-6.248131E-1,3.246853E-1,-7.65934E-2,-2.0083336E-2,2.9942323E-2,-1.1293755E-1,-8.016714E-3,-2.6721193E-2,4.5659497E-2],"categories":[],"categories_nodes":[],"categories_segments":[],"categories_sizes":[],"default_left":[0,0,0,0,0,0,0,0,0,0,0,0,0],"id":77,"left_children":[1,3,5,7,9,11,-1,-1,-1,-1,-1,-1,-1],"loss_changes":[1.0102308E0,1.1093735E0,2.027281E0,1.4059781E0,1.0086926E0,1.1370081E0,0E0,0E0,0E0,0E0,0E0,0E0,0E0],"parents":[2147483647,0,0,1,1,2,2,3,3,4,4,5,5],"right_children":[2,4,6,8,10,12,-1,-1,-1,-1,-1,-1,-1],"split_conditions":[3.5E0,1.75E0,4.4E0,7.5E-1,9E0,2E0,-7.65934E-2,-2.0083336E-2,2.9942323E-2,-1.1293755E-1,-8.016714E-3,-2.6721193E-2,4.5659497E-2],"split_indices":[2,2,3,2,1,1,0,0,0,0,0,0,0],"split_type":[0,0,0,0,0,0,0,0,0,0,0,0,0],"sum_hessian":[4.1E1,2.8E1,1.3E1,2.5E1,3E0,1.2E1,1E0,1.8E1,7E0,1E0,2E0,2E0,1E1],"tree_param":{"num_deleted":"0","num_feature":"4","num_nodes":"13","size_leaf_vector":"1"}},{"base_weights":[-3.039151E-2,-2.6715297E-1,5.194497E-2,6.9389915E-1,-7.142849E-1,-2.0190266E-1,2.3625664E-1,4.550171E-3,1.3195458E-1,-2.6294136E-1,-6.5064565E-3,4.7498527E-3,-8.372803E-2,1.4903164E-1,-9.202433E-3],"categories":[],"categories_nodes":[],"categories_segments":[],"categories_sizes":[],"default_left":[0,0,0,0,0,0,0,0,0,0,0,0,0,0,0],"id":78,"left_children":[1,3,5,7,9,11,13,-1,-1,-1,-1,-1,-1,-1,-1],"loss_changes":[8.326296E-1,5.22253E0,1.5448875E0,1.562629E0,9.775642E0,2.2582645E0,7.95914E0,0E0,0E0,0E0,0E0,0E0,0E0,0E0,0E0],"parents":[2147483647,0,0,1,1,2,2,3,3,4,4,5,5,6,6],"right_children":[2,4,6,8,10,12,14,-1,-1,-1,-1,-1,-1,-1,-1],"split_conditions":[1.98E2,4E0,5E0,3E0,6E0,4.4E0,6E0,4.550171E-3,1.3195458E-1,-2.6294136E-1,-6.5064565E-3,4.7498527E-3,-8.372803E-2,1.4903164E-1,-9.202433E-3],"split_indices":[0,1,1,1,1,3,1,0,0,0,0,0,0,0,0],"split_type":[0,0,0,0,0,0,0,0,0,0,0,0,0,0,0],"sum_hessian":[4.1E1,1E1,3.1E1,3E0,7E0,1.3E1,1.8E1,2E0,1E0,1E0,6E0,1E1,3E0,3E0,1.5E1],"tree_param":{"num_deleted":"0","num_feature":"4","num_nodes":"15","size_leaf_vector":"1"}},{"base_weights":[-2.9070172E-2,2.2549513E-3,-6.567001E-2,-7.979671E-2,4.1219112E-1,-1.6613428E-2,2.8928703E-2,1.2439118E-2,7.544606E-2],"categories":[],"categories_nodes":[],"categories_segments":[],"categories_sizes":[],"default_left":[0,0,0,0,0,0,0,0,0],"id":79,"left_children":[1,3,-1,5,7,-1,-1,-1,-1],"loss_changes":[8.272255E-1,1.4119653E0,0E0,1.1633632E0,5.9568787E-1,0E0,0E0,0E0,0E0],"parents":[2147483647,0,0,1,1,3,3,4,4],"right_children":[2,4,-1,6,8,-1,-1,-1,-1],"split_conditions":[5.3E0,1.1E1,-6.567001E-2,4.7E0,6.84E2,-1.6613428E-2,2.8928703E-2,1.2439118E-2,7.544606E-2],"split_indices":[3,1,0,3,0,0,0,0,0],"split_type":[0,0,0,0,0,0,0,0,0],"sum_hessian":[4.1E1,4E1,1E0,3.4E1,6E0,2.8E1,6E0,4E0,2E0],"tree_param":{"num_deleted":"0","num_feature":"4","num_nodes":"9","size_leaf_vector":"1"}},{"base_weights":[-2.5338672E-2,-1.2195745E-1,1.7661013E-1,-4.672652E-2,-5.8046913E-1,2.9442126E-1,-6.7746736E-2,-1.7724972E-2,2.6910687E-2,-1.0599976E-1,-6.72938E-3,6.097412E-3,6.557419E-2],"categories":[],"categories_nodes":[],"categories_segments":[],"categories_sizes":[],"default_left":[0,0,0,0,0,0,0,0,0,0,0,0,0],"id":80,"left_children":[1,3,5,7,9,11,-1,-1,-1,-1,-1,-1,-1],"loss_changes":[8.4104484E-1,9.732102E-1,1.6081384E0,1.1195122E0,9.129975E-1,1.0565572E0,0E0,0E0,0E0,0E0,0E0,0E0,0E0],"parents":[2147483647,0,0,1,1,2,2,3,3,4,4,5,5],"right_children":[2,4,6,8,10,12,-1,-1,-1,-1,-1,-1,-1],"split_conditions":[3.5E0,1.75E0,4.4E0,7.5E-1,9E0,4.1E0,-6.7746736E-2,-1.7724972E-2,2.6910687E-2,-1.0599976E-1,-6.72938E-3,6.097412E-3,6.557419E-2],"split_indices":[2,2,3,2,1,3,0,0,0,0,0,0,0],"split_type":[0,0,0,0,0,0,0,0,0,0,0,0,0],"sum_hessian":[4.1E1,2.8E1,1.3E1,2.5E1,3E0,1.2E1,1E0,1.8E1,7E0,1E0,2E0,8E0,4E0],"tree_param":{"num_deleted":"0","num_feature":"4","num_nodes":"13","size_leaf_vector":"1"}},{"base_weights":[-2.517682E-2,-3.986252E-2,2.462367E-2,-3.7666625E-1,8.291267E-2,3.2665252E-3,-1.0069962E-1,-1.2562858E-2,2.9884383E-2],"categories":[],"categories_nodes":[],"categories_segments":[],"categories_sizes":[],"default_left":[0,0,0,0,0,0,0,0,0],"id":81,"left_children":[1,-1,3,5,7,-1,-1,-1,-1],"loss_changes":[7.909279E-1,0E0,9.2008036E-1,1.3229635E0,1.568582E0,0E0,0E0,0E0,0E0],"parents":[2147483647,0,0,2,2,3,3,4,4],"right_children":[2,-1,4,6,8,-1,-1,-1,-1],"split_conditions":[2E0,-3.986252E-2,3.8E0,8E0,7.5E-1,3.2665252E-3,-1.0069962E-1,-1.2562858E-2,2.9884383E-2],"split_indices":[1,0,3,1,2,0,0,0,0],"split_type":[0,0,0,0,0,0,0,0,0],"sum_hessian":[4.1E1,4E0,3.7E1,4E0,3.3E1,3E0,1E0,1.7E1,1.6E1],"tree_param":{"num_deleted":"0","num_feature":"4","num_nodes":"9","size_leaf_vector":"1"}},{"base_weights":[-2.551433E-2,3.5569726E-3,-6.0871888E-2,-7.241756E-2,3.829215E-1,-1.5750937E-2,2.9045105E-2,1.0147705E-2,7.2435506E-2],"categories":[],"categories_nodes":[],"categories_segments":[],"categories_sizes":[],"default_left":[0,0,0,0,0,0,0,0,0],"id":82,"left_children":[1,3,-1,5,7,-1,-1,-1,-1],"loss_changes":[7.1425486E-1,1.209434E0,0E0,1.1264491E0,5.991566E-1,0E0,0E0,0E0,0E0],"parents":[2147483647,0,0,1,1,3,3,4,4],"right_children":[2,4,-1,6,8,-1,-1,-1,-1],"split_conditions":[5.3E0,1.1E1,-6.0871888E-2,4.7E0,6.84E2,-1.5750937E-2,2.9045105E-2,1.0147705E-2,7.2435506E-2],"split_indices":[3,1,0,3,0,0,0,0,0],"split_type":[0,0,0,0,0,0,0,0,0],"sum_hessian":[4.1E1,4E1,1E0,3.4E1,6E0,2.8E1,6E0,4E0,2E0],"tree_param":{"num_deleted":"0","num_feature":"4","num_nodes":"9","size_leaf_vector":"1"}},{"base_weights":[-2.2126697E-2,5.542476E-3,-5.782814E-2,-6.479296E-2,3.5642788E-1,-1.4229794E-2,2.6555523E-2,9.335938E-3,6.760661E-2],"categories":[],"categories_nodes":[],"categories_segments":[],"categories_sizes":[],"default_left":[0,0,0,0,0,0,0,0,0],"id":83,"left_children":[1,3,-1,5,7,-1,-1,-1,-1],"loss_changes":[6.4951545E-1,1.0349609E0,0E0,9.339151E-1,5.254901E-1,0E0,0E0,0E0,0E0],"parents":[2147483647,0,0,1,1,3,3,4,4],"right_children":[2,4,-1,6,8,-1,-1,-1,-1],"split_conditions":[5.3E0,1.1E1,-5.782814E-2,4.7E0,6.84E2,-1.4229794E-2,2.6555523E-2,9.335938E-3,6.760661E-2],"split_indices":[3,1,0,3,0,0,0,0,0],"split_type":[0,0,0,0,0,0,0,0,0],"sum_hessian":[4.1E1,4E1,1E0,3.4E1,6E0,2.8E1,6E0,4E0,2E0],"tree_param":{"num_deleted":"0","num_feature":"4","num_nodes":"9","size_leaf_vector":"1"}},{"base_weights":[-1.9166492E-2,-1.6157131E-1,9.4369255E-2,-5.056699E-1,-2.5596619E-3,2.642957E-1,-2.7852058E-1,4.3763924E-2,-1.5948588E-1,-1.5363197E-1,2.3360033E-2,3.612571E-2,-6.435432E-2,-4.972567E-2,6.263161E-2],"categories":[],"categories_nodes":[],"categories_segments":[],"categories_sizes":[],"default_left":[0,0,0,0,0,0,0,0,0,0,0,0,0,0,0],"id":84,"left_children":[1,3,5,7,9,11,13,-1,-1,-1,-1,-1,-1,-1,-1],"loss_changes":[6.943049E-1,1.0383037E0,1.594344E0,6.8626237E0,5.4298635E0,1.7289152E0,1.8948035E0,0E0,0E0,0E0,0E0,0E0,0E0,0E0,0E0],"parents":[2147483647,0,0,1,1,2,2,3,3,4,4,5,5,6,6],"right_children":[2,4,6,8,10,12,14,-1,-1,-1,-1,-1,-1,-1,-1],"split_conditions":[7.5E-1,4.2E0,8E0,4E0,4E0,4.4E0,1.2E1,4.3763924E-2,-1.5948588E-1,-1.5363197E-1,2.3360033E-2,3.612571E-2,-6.435432E-2,-4.972567E-2,6.263161E-2],"split_indices":[2,3,1,1,1,3,1,0,0,0,0,0,0,0,0],"split_type":[0,0,0,0,0,0,0,0,0,0,0,0,0,0,0],"sum_hessian":[4.1E1,1.8E1,2.3E1,5E0,1.3E1,1.6E1,7E0,3E0,2E0,1E0,1.2E1,1.5E1,1E0,6E0,1E0],"tree_param":{"num_deleted":"0","num_feature":"4","num_nodes":"15","size_leaf_vector":"1"}},{"base_weights":[-2.3471287E-2,-3.7317507E-2,2.3160031E-2,-7.339252E-2,2.3847325E-1,-4.0753683E-5,-4.9295425E-2,3.7131015E-2,-6.113663E-2],"categories":[],"categories_nodes":[],"categories_segments":[],"categories_sizes":[],"default_left":[0,0,0,0,0,0,0,0,0],"id":85,"left_children":[1,-1,3,5,7,-1,-1,-1,-1],"loss_changes":[6.935429E-1,0E0,8.0748564E-1,8.265851E-1,1.5816872E0,0E0,0E0,0E0,0E0],"parents":[2147483647,0,0,2,2,3,3,4,4],"right_children":[2,-1,4,6,8,-1,-1,-1,-1],"split_conditions":[2E0,-3.7317507E-2,3.5E0,1.75E0,4.4E0,-4.0753683E-5,-4.9295425E-2,3.7131015E-2,-6.113663E-2],"split_indices":[1,0,2,2,3,0,0,0,0],"split_type":[0,0,0,0,0,0,0,0,0],"sum_hessian":[4.1E1,4E0,3.7E1,2.6E1,1.1E1,2.3E1,3E0,1E1,1E0],"tree_param":{"num_deleted":"0","num_feature":"4","num_nodes":"9","size_leaf_vector":"1"}},{"base_weights":[-2.3761023E-2,-2.278595E-1,4.714036E-2,6.705437E-1,-6.4857864E-1,-2.692032E-1,1.8263145E-1,4.729207E-3,1.2701492E-1,-2.379738E-1,-6.130764E-3,-1.21432744E-1,1.1886883E-2,3.4603663E-3,1.1579489E-1],"categories":[],"categories_nodes":[],"categories_segments":[],"categories_sizes":[],"default_left":[0,0,0,0,0,0,0,0,0,0,0,0,0,0,0],"id":86,"left_children":[1,3,5,7,9,11,13,-1,-1,-1,-1,-1,-1,-1,-1],"loss_changes":[6.1851764E-1,4.59263E0,1.4207404E0,1.4347526E0,7.98738E0,3.8121088E0,3.2805343E0,0E0,0E0,0E0,0E0,0E0,0E0,0E0,0E0],"parents":[2147483647,0,0,1,1,2,2,3,3,4,4,5,5,6,6],"right_children":[2,4,6,8,10,12,14,-1,-1,-1,-1,-1,-1,-1,-1],"split_conditions":[1.98E2,4E0,4E0,3E0,6E0,5E-1,4.6E0,4.729207E-3,1.2701492E-1,-2.379738E-1,-6.130764E-3,-1.21432744E-1,1.1886883E-2,3.4603663E-3,1.1579489E-1],"split_indices":[0,1,1,1,1,2,3,0,0,0,0,0,0,0,0],"split_type":[0,0,0,0,0,0,0,0,0,0,0,0,0,0,0],"sum_hessian":[4.1E1,1E1,3.1E1,3E0,7E0,9E0,2.2E1,2E0,1E0,1E0,6E0,2E0,7E0,2E1,2E0],"tree_param":{"num_deleted":"0","num_feature":"4","num_nodes":"15","size_leaf_vector":"1"}},{"base_weights":[-2.383005E-2,2.8063145E-3,-5.5796053E-2,-6.631208E-2,3.479974E-1,-1.3675058E-2,2.3497773E-2,8.274384E-3,6.7408755E-2],"categories":[],"categories_nodes":[],"categories_segments":[],"categories_sizes":[],"default_left":[0,0,0,0,0,0,0,0,0],"id":87,"left_children":[1,3,-1,5,7,-1,-1,-1,-1],"loss_changes":[5.991121E-1,1.0012976E0,0E0,7.749175E-1,5.4969937E-1,0E0,0E0,0E0,0E0],"parents":[2147483647,0,0,1,1,3,3,4,4],"right_children":[2,4,-1,6,8,-1,-1,-1,-1],"split_conditions":[5.3E0,1.1E1,-5.5796053E-2,4.7E0,6.84E2,-1.3675058E-2,2.3497773E-2,8.274384E-3,6.7408755E-2],"split_indices":[3,1,0,3,0,0,0,0,0],"split_type":[0,0,0,0,0,0,0,0,0],"sum_hessian":[4.1E1,4E1,1E0,3.4E1,6E0,2.8E1,6E0,4E0,2E0],"tree_param":{"num_deleted":"0","num_feature":"4","num_nodes":"9","size_leaf_vector":"1"}},{"base_weights":[-2.0742144E-2,-1.5578862E-1,8.7033905E-2,-4.3409094E-1,-2.5388446E-2,2.397811E-1,-2.4843311E-1,4.200516E-2,-1.4282507E-1,-1.4105187E-1,1.8966148E-2,2.1388372E-3,6.366031E-2,-4.4694193E-2,5.7056427E-2],"categories":[],"categories_nodes":[],"categories_segments":[],"categories_sizes":[],"default_left":[0,0,0,0,0,0,0,0,0,0,0,0,0,0,0],"id":88,"left_children":[1,3,5,7,9,11,13,-1,-1,-1,-1,-1,-1,-1,-1],"loss_changes":[6.248595E-1,6.7850184E-1,1.2893691E0,5.6948633E0,4.437731E0,1.4596555E0,1.5556346E0,0E0,0E0,0E0,0E0,0E0,0E0,0E0,0E0],"parents":[2147483647,0,0,1,1,2,2,3,3,4,4,5,5,6,6],"right_children":[2,4,6,8,10,12,14,-1,-1,-1,-1,-1,-1,-1,-1],"split_conditions":[7.5E-1,4.2E0,8E0,4E0,4E0,5E0,1.2E1,4.200516E-2,-1.4282507E-1,-1.4105187E-1,1.8966148E-2,2.1388372E-3,6.366031E-2,-4.4694193E-2,5.7056427E-2],"split_indices":[2,3,1,1,1,1,1,0,0,0,0,0,0,0,0],"split_type":[0,0,0,0,0,0,0,0,0,0,0,0,0,0,0],"sum_hessian":[4.1E1,1.8E1,2.3E1,5E0,1.3E1,1.6E1,7E0,3E0,2E0,1E0,1.2E1,1.1E1,5E0,6E0,1E0],"tree_param":{"num_deleted":"0","num_feature":"4","num_nodes":"15","size_leaf_vector":"1"}},{"base_weights":[-2.2113983E-2,-3.4513244E-1,2.0970395E-2,9.3078613E-4,-8.646927E-2,-1.5194261E-1,1.8418923E-1,-8.234152E-3,1.2537384E-2,-3.0238897E-2,4.8818802E-3,2.5459532E-2,-5.7676315E-2],"categories":[],"categories_nodes":[],"categories_segments":[],"categories_sizes":[],"default_left":[0,0,0,0,0,0,0,0,0,0,0,0,0],"id":89,"left_children":[1,3,5,7,-1,9,11,-1,-1,-1,-1,-1,-1],"loss_changes":[5.917536E-1,8.998083E-1,1.1004472E0,5.1774107E-2,0E0,5.8863485E-1,1.2183547E0,0E0,0E0,0E0,0E0,0E0,0E0],"parents":[2147483647,0,0,1,1,2,2,3,3,5,5,6,6],"right_children":[2,4,6,8,-1,10,12,-1,-1,-1,-1,-1,-1],"split_conditions":[3.8E0,8E0,7.5E-1,7E0,-8.646927E-2,6.84E2,4.4E0,-8.234152E-3,1.2537384E-2,-3.0238897E-2,4.8818802E-3,2.5459532E-2,-5.7676315E-2],"split_indices":[3,1,2,1,0,0,3,0,0,0,0,0,0],"split_type":[0,0,0,0,0,0,0,0,0,0,0,0,0],"sum_hessian":[4.1E1,4E0,3.7E1,3E0,1E0,1.8E1,1.9E1,2E0,1E0,1E1,8E0,1.8E1,1E0],"tree_param":{"num_deleted":"0","num_feature":"4","num_nodes":"13","size_leaf_vector":"1"}},{"base_weights":[-2.3230597E-2,-3.327118E-2,1.8101944E-2,-3.270523E-1,6.832751E-2,1.9130707E-4,-8.214569E-2,-1.3839627E-2,2.388145E-2],"categories":[],"categories_nodes":[],"categories_segments":[],"categories_sizes":[],"default_left":[0,0,0,0,0,0,0,0,0],"id":90,"left_children":[1,-1,3,5,7,-1,-1,-1,-1],"loss_changes":[5.432718E-1,0E0,6.810983E-1,8.147815E-1,1.2313373E0,0E0,0E0,0E0,0E0],"parents":[2147483647,0,0,2,2,3,3,4,4],"right_children":[2,-1,4,6,8,-1,-1,-1,-1],"split_conditions":[2E0,-3.327118E-2,3.8E0,8E0,2.5E-1,1.9130707E-4,-8.214569E-2,-1.3839627E-2,2.388145E-2],"split_indices":[1,0,3,1,2,0,0,0,0],"split_type":[0,0,0,0,0,0,0,0,0],"sum_hessian":[4.1E1,4E0,3.7E1,4E0,3.3E1,3E0,1E0,1.5E1,1.8E1],"tree_param":{"num_deleted":"0","num_feature":"4","num_nodes":"9","size_leaf_vector":"1"}},{"base_weights":[-2.341116E-2,1.2621996E-3,-5.1750947E-2,-6.370806E-2,3.259332E-1,-1.3582584E-2,2.4416678E-2,5.8006286E-3,6.638336E-2],"categories":[],"categories_nodes":[],"categories_segments":[],"categories_sizes":[],"default_left":[0,0,0,0,0,0,0,0,0],"id":91,"left_children":[1,3,-1,5,7,-1,-1,-1,-1],"loss_changes":[5.126779E-1,8.8561684E-1,0E0,8.10278E-1,5.9522176E-1,0E0,0E0,0E0,0E0],"parents":[2147483647,0,0,1,1,3,3,4,4],"right_children":[2,4,-1,6,8,-1,-1,-1,-1],"split_conditions":[5.3E0,1.1E1,-5.1750947E-2,4.7E0,6.84E2,-1.3582584E-2,2.4416678E-2,5.8006286E-3,6.638336E-2],"split_indices":[3,1,0,3,0,0,0,0,0],"split_type":[0,0,0,0,0,0,0,0,0],"sum_hessian":[4.1E1,4E1,1E0,3.4E1,6E0,2.8E1,6E0,4E0,2E0],"tree_param":{"num_deleted":"0","num_feature":"4","num_nodes":"9","size_leaf_vector":"1"}},{"base_weights":[-2.0326523E-2,3.159872E-3,-4.916344E-2,-5.702907E-2,3.0365318E-1,-1.2271381E-2,2.2324046E-2,5.3367615E-3,6.1957806E-2],"categories":[],"categories_nodes":[],"categories_segments":[],"categories_sizes":[],"default_left":[0,0,0,0,0,0,0,0,0],"id":92,"left_children":[1,3,-1,5,7,-1,-1,-1,-1],"loss_changes":[4.6646506E-1,7.5885844E-1,0E0,6.7172474E-1,5.204346E-1,0E0,0E0,0E0,0E0],"parents":[2147483647,0,0,1,1,3,3,4,4],"right_children":[2,4,-1,6,8,-1,-1,-1,-1],"split_conditions":[5.3E0,1.1E1,-4.916344E-2,4.7E0,6.84E2,-1.2271381E-2,2.2324046E-2,5.3367615E-3,6.1957806E-2],"split_indices":[3,1,0,3,0,0,0,0,0],"split_type":[0,0,0,0,0,0,0,0,0],"sum_hessian":[4.1E1,4E1,1E0,3.4E1,6E0,2.8E1,6E0,4E0,2E0],"tree_param":{"num_deleted":"0","num_feature":"4","num_nodes":"9","size_leaf_vector":"1"}},{"base_weights":[-1.7625174E-2,-1.4058204E-1,8.045006E-2,-3.9010367E-1,-2.3602622E-2,2.2144677E-1,-2.292242E-1,4.3641664E-2,-1.3620962E-1,-1.358883E-1,1.836407E-2,3.0365467E-2,-5.4693986E-2,-4.0819984E-2,5.118027E-2],"categories":[],"categories_nodes":[],"categories_segments":[],"categories_sizes":[],"default_left":[0,0,0,0,0,0,0,0,0,0,0,0,0,0,0],"id":93,"left_children":[1,3,5,7,9,11,13,-1,-1,-1,-1,-1,-1,-1,-1],"loss_changes":[5.1778877E-1,5.4538155E-1,1.0986743E0,5.414671E0,4.1237373E0,1.2399276E0,1.2699239E0,0E0,0E0,0E0,0E0,0E0,0E0,0E0,0E0],"parents":[2147483647,0,0,1,1,2,2,3,3,4,4,5,5,6,6],"right_children":[2,4,6,8,10,12,14,-1,-1,-1,-1,-1,-1,-1,-1],"split_conditions":[7.5E-1,4.2E0,8E0,4E0,4E0,4.4E0,1.2E1,4.3641664E-2,-1.3620962E-1,-1.358883E-1,1.836407E-2,3.0365467E-2,-5.4693986E-2,-4.0819984E-2,5.118027E-2],"split_indices":[2,3,1,1,1,3,1,0,0,0,0,0,0,0,0],"split_type":[0,0,0,0,0,0,0,0,0,0,0,0,0,0,0],"sum_hessian":[4.1E1,1.8E1,2.3E1,5E0,1.3E1,1.6E1,7E0,3E0,2E0,1E0,1.2E1,1.5E1,1E0,6E0,1E0],"tree_param":{"num_deleted":"0","num_feature":"4","num_nodes":"15","size_leaf_vector":"1"}},{"base_weights":[-2.1197546E-2,-3.1236267E-2,1.7671485E-2,-1.3515997E-1,1.2322069E-1,-5.825475E-2,-2.9636929E-3,-3.0011445E-2,2.2813937E-2],"categories":[],"categories_nodes":[],"categories_segments":[],"categories_sizes":[],"default_left":[0,0,0,0,0,0,0,0,0],"id":94,"left_children":[1,-1,3,5,7,-1,-1,-1,-1],"loss_changes":[4.8084676E-1,0E0,6.2964153E-1,7.380902E-1,1.0900306E0,0E0,0E0,0E0,0E0],"parents":[2147483647,0,0,2,2,3,3,4,4],"right_children":[2,-1,4,6,8,-1,-1,-1,-1],"split_conditions":[2E0,-3.1236267E-2,2.5E-1,4.2E0,3.8E0,-5.825475E-2,-2.9636929E-3,-3.0011445E-2,2.2813937E-2],"split_indices":[1,0,2,3,3,0,0,0,0],"split_type":[0,0,0,0,0,0,0,0,0],"sum_hessian":[4.1E1,4E0,3.7E1,1.5E1,2.2E1,2E0,1.3E1,4E0,1.8E1],"tree_param":{"num_deleted":"0","num_feature":"4","num_nodes":"9","size_leaf_vector":"1"}},{"base_weights":[-2.1450406E-2,1.1851613E-3,-4.7475435E-2,-5.646624E-2,2.8927284E-1,-2.1099804E-2,5.660248E-3,3.8420104E-3,6.1093647E-2],"categories":[],"categories_nodes":[],"categories_segments":[],"categories_sizes":[],"default_left":[0,0,0,0,0,0,0,0,0],"id":95,"left_children":[1,3,-1,5,7,-1,-1,-1,-1],"loss_changes":[4.3151587E-1,6.9728917E-1,0E0,6.234879E-1,5.413591E-1,0E0,0E0,0E0,0E0],"parents":[2147483647,0,0,1,1,3,3,4,4],"right_children":[2,4,-1,6,8,-1,-1,-1,-1],"split_conditions":[5.3E0,1.1E1,-4.7475435E-2,7.5E-1,6.84E2,-2.1099804E-2,5.660248E-3,3.8420104E-3,6.1093647E-2],"split_indices":[3,1,0,2,0,0,0,0,0],"split_type":[0,0,0,0,0,0,0,0,0],"sum_hessian":[4.1E1,4E1,1E0,3.4E1,6E0,1.4E1,2E1,4E0,2E0],"tree_param":{"num_deleted":"0","num_feature":"4","num_nodes":"9","size_leaf_vector":"1"}},{"base_weights":[-1.9256955E-2,-2.8655091E-2,1.6420063E-2,-2.8063202E-1,5.962125E-2,1.6647339E-3,-7.3487476E-2,3.3057746E-2,-3.6464396E-3],"categories":[],"categories_nodes":[],"categories_segments":[],"categories_sizes":[],"default_left":[0,0,0,0,0,0,0,0,0],"id":96,"left_children":[1,-1,3,5,7,-1,-1,-1,-1],"loss_changes":[4.0522772E-1,0E0,5.043857E-1,6.874186E-1,8.972443E-1,0E0,0E0,0E0,0E0],"parents":[2147483647,0,0,2,2,3,3,4,4],"right_children":[2,-1,4,6,8,-1,-1,-1,-1],"split_conditions":[2E0,-2.8655091E-2,3.8E0,8E0,4E0,1.6647339E-3,-7.3487476E-2,3.3057746E-2,-3.6464396E-3],"split_indices":[1,0,3,1,3,0,0,0,0],"split_type":[0,0,0,0,0,0,0,0,0],"sum_hessian":[4.1E1,4E0,3.7E1,4E0,3.3E1,3E0,1E0,8E0,2.5E1],"tree_param":{"num_deleted":"0","num_feature":"4","num_nodes":"9","size_leaf_vector":"1"}},{"base_weights":[-1.9022986E-2,2.4248448E-3,-4.4919204E-2,-4.8562404E-2,2.570147E-1,-1.1512941E-2,2.3415266E-2,1.6238403E-3,5.726369E-2],"categories":[],"categories_nodes":[],"categories_segments":[],"categories_sizes":[],"default_left":[0,0,0,0,0,0,0,0,0],"id":97,"left_children":[1,3,-1,5,7,-1,-1,-1,-1],"loss_changes":[3.8858935E-1,5.446955E-1,0E0,6.856401E-1,5.2266175E-1,0E0,0E0,0E0,0E0],"parents":[2147483647,0,0,1,1,3,3,4,4],"right_children":[2,4,-1,6,8,-1,-1,-1,-1],"split_conditions":[5.3E0,1.1E1,-4.4919204E-2,4.7E0,6.84E2,-1.1512941E-2,2.3415266E-2,1.6238403E-3,5.726369E-2],"split_indices":[3,1,0,3,0,0,0,0,0],"split_type":[0,0,0,0,0,0,0,0,0],"sum_hessian":[4.1E1,4E1,1E0,3.4E1,6E0,2.8E1,6E0,4E0,2E0],"tree_param":{"num_deleted":"0","num_feature":"4","num_nodes":"9","size_leaf_vector":"1"}},{"base_weights":[-1.6504923E-2,-1.222225E-1,6.787586E-2,-3.463936E-1,-1.7418997E-2,2.0120014E-1,-2.2392273E-1,4.4462968E-2,-1.2856267E-1,-1.2887917E-1,1.7951673E-2,8.550644E-4,5.529658E-2,-3.86067E-2,4.555435E-2],"categories":[],"categories_nodes":[],"categories_segments":[],"categories_sizes":[],"default_left":[0,0,0,0,0,0,0,0,0,0,0,0,0,0,0],"id":98,"left_children":[1,3,5,7,9,11,13,-1,-1,-1,-1,-1,-1,-1,-1],"loss_changes":[3.829583E-1,4.403506E-1,9.787454E-1,5.029359E0,3.7366612E0,1.1473188E0,1.0572426E0,0E0,0E0,0E0,0E0,0E0,0E0,0E0,0E0],"parents":[2147483647,0,0,1,1,2,2,3,3,4,4,5,5,6,6],"right_children":[2,4,6,8,10,12,14,-1,-1,-1,-1,-1,-1,-1,-1],"split_conditions":[7.5E-1,4.2E0,8E0,4E0,4E0,5E0,1.2E1,4.4462968E-2,-1.2856267E-1,-1.2887917E-1,1.7951673E-2,8.550644E-4,5.529658E-2,-3.86067E-2,4.555435E-2],"split_indices":[2,3,1,1,1,1,1,0,0,0,0,0,0,0,0],"split_type":[0,0,0,0,0,0,0,0,0,0,0,0,0,0,0],"sum_hessian":[4.1E1,1.8E1,2.3E1,5E0,1.3E1,1.6E1,7E0,3E0,2E0,1E0,1.2E1,1.1E1,5E0,6E0,1E0],"tree_param":{"num_deleted":"0","num_feature":"4","num_nodes":"15","size_leaf_vector":"1"}},{"base_weights":[-1.7996106E-2,-2.7229157E-1,1.5937403E-2,-3.8280487E-3,-6.7307286E-2,-1.2026536E-1,1.4453316E-1,1.3954925E-2,-9.813691E-3,-2.490713E-2,5.0526937E-3,2.0757977E-2,-5.2667618E-2],"categories":[],"categories_nodes":[],"categories_segments":[],"categories_sizes":[],"default_left":[0,0,0,0,0,0,0,0,0,0,0,0,0],"id":99,"left_children":[1,3,5,7,-1,9,11,-1,-1,-1,-1,-1,-1],"loss_changes":[3.6676338E-1,5.3539914E-1,6.82956E-1,6.778193E-2,0E0,4.30567E-1,9.5567673E-1,0E0,0E0,0E0,0E0,0E0,0E0],"parents":[2147483647,0,0,1,1,2,2,3,3,5,5,6,6],"right_children":[2,4,6,8,-1,10,12,-1,-1,-1,-1,-1,-1],"split_conditions":[3.8E0,8E0,7.5E-1,5E0,-6.7307286E-2,4.7E0,4.4E0,1.3954925E-2,-9.813691E-3,-2.490713E-2,5.0526937E-3,2.0757977E-2,-5.2667618E-2],"split_indices":[3,1,2,1,0,3,3,0,0,0,0,0,0],"split_type":[0,0,0,0,0,0,0,0,0,0,0,0,0],"sum_hessian":[4.1E1,4E0,3.7E1,3E0,1E0,1.8E1,1.9E1,1E0,2E0,1E1,8E0,1.8E1,1E0],"tree_param":{"num_deleted":"0","num_feature":"4","num_nodes":"13","size_leaf_vector":"1"}}]},"name":"gbtree"},"learner_model_param":{"base_score":"9.391024E1","boost_from_average":"1","num_class":"0","num_feature":"4","num_target":"1"},"objective":{"name":"reg:squarederror","reg_loss_param":{"scale_pos_weight":"1"}}},"version":[3,0,2]}